<?xml version="1.0"?>
<opencv_storage>
<cascade>
  <stageType>BOOST</stageType>
  <featureType>HAAR</featureType>
  <height>50</height>
  <width>30</width>
  <stageParams>
    <boostType>GAB</boostType>
    <minHitRate>9.9900001287460327e-01</minHitRate>
    <maxFalseAlarm>5.0000000000000000e-01</maxFalseAlarm>
    <weightTrimRate>9.4999999999999996e-01</weightTrimRate>
    <maxDepth>1</maxDepth>
    <maxWeakCount>100</maxWeakCount></stageParams>
  <featureParams>
    <maxCatCount>0</maxCatCount>
    <featSize>1</featSize>
    <mode>ALL</mode></featureParams>
  <stageNum>20</stageNum>
  <stages>
    <!-- stage 0 -->
    <_>
      <maxWeakCount>9</maxWeakCount>
      <stageThreshold>-1.5455920696258545e+00</stageThreshold>
      <weakClassifiers>
        <_>
          <internalNodes>
            0 -1 27 -6.8465509684756398e-04</internalNodes>
          <leafValues>
            8.1186687946319580e-01 -1.7711770534515381e-01</leafValues></_>
        <_>
          <internalNodes>
            0 -1 100 -5.3223618306219578e-03</internalNodes>
          <leafValues>
            5.0633072853088379e-01 -4.6870484948158264e-01</leafValues></_>
        <_>
          <internalNodes>
            0 -1 335 -2.2156642808113247e-04</internalNodes>
          <leafValues>
            8.7579828500747681e-01 -2.8089934587478638e-01</leafValues></_>
        <_>
          <internalNodes>
            0 -1 334 2.1819789253640920e-04</internalNodes>
          <leafValues>
            -3.5439476370811462e-01 8.1691265106201172e-01</leafValues></_>
        <_>
          <internalNodes>
            0 -1 287 -4.8095773672685027e-04</internalNodes>
          <leafValues>
            8.4147572517395020e-01 -1.9852879643440247e-01</leafValues></_>
        <_>
          <internalNodes>
            0 -1 283 7.8907771967351437e-04</internalNodes>
          <leafValues>
            -2.5334310531616211e-01 8.3629566431045532e-01</leafValues></_>
        <_>
          <internalNodes>
            0 -1 310 -1.7215206753462553e-04</internalNodes>
          <leafValues>
            7.2495841979980469e-01 -2.5260469317436218e-01</leafValues></_>
        <_>
          <internalNodes>
            0 -1 92 -9.5288024749606848e-04</internalNodes>
          <leafValues>
            5.9511399269104004e-01 -3.3282318711280823e-01</leafValues></_>
        <_>
          <internalNodes>
            0 -1 316 -5.0575775094330311e-04</internalNodes>
          <leafValues>
            7.8201884031295776e-01 -2.6718014478683472e-01</leafValues></_></weakClassifiers></_>
    <!-- stage 1 -->
    <_>
      <maxWeakCount>10</maxWeakCount>
      <stageThreshold>-8.8780844211578369e-01</stageThreshold>
      <weakClassifiers>
        <_>
          <internalNodes>
            0 -1 34 -4.7179371118545532e-02</internalNodes>
          <leafValues>
            -6.5359479188919067e-01 4.6367850899696350e-01</leafValues></_>
        <_>
          <internalNodes>
            0 -1 362 1.1376966722309589e-03</internalNodes>
          <leafValues>
            -2.7858686447143555e-01 6.3129478693008423e-01</leafValues></_>
        <_>
          <internalNodes>
            0 -1 200 -5.7288387324661016e-04</internalNodes>
          <leafValues>
            5.1675897836685181e-01 -3.4057778120040894e-01</leafValues></_>
        <_>
          <internalNodes>
            0 -1 302 -9.6324703190475702e-04</internalNodes>
          <leafValues>
            6.5956592559814453e-01 -2.8785565495491028e-01</leafValues></_>
        <_>
          <internalNodes>
            0 -1 110 2.0468339323997498e-01</internalNodes>
          <leafValues>
            3.1605550646781921e-01 -7.7288669347763062e-01</leafValues></_>
        <_>
          <internalNodes>
            0 -1 303 2.8346877661533654e-04</internalNodes>
          <leafValues>
            -3.3381971716880798e-01 7.7330279350280762e-01</leafValues></_>
        <_>
          <internalNodes>
            0 -1 308 -7.7932159183546901e-04</internalNodes>
          <leafValues>
            7.3087388277053833e-01 -1.8442060053348541e-01</leafValues></_>
        <_>
          <internalNodes>
            0 -1 181 -8.5543270688503981e-04</internalNodes>
          <leafValues>
            7.1431773900985718e-01 -2.4005293846130371e-01</leafValues></_>
        <_>
          <internalNodes>
            0 -1 37 -6.3192411325871944e-03</internalNodes>
          <leafValues>
            5.2177894115447998e-01 -3.2738792896270752e-01</leafValues></_>
        <_>
          <internalNodes>
            0 -1 36 -3.9193558041006327e-04</internalNodes>
          <leafValues>
            6.7572724819183350e-01 -2.6407137513160706e-01</leafValues></_></weakClassifiers></_>
    <!-- stage 2 -->
    <_>
      <maxWeakCount>13</maxWeakCount>
      <stageThreshold>-7.6874011754989624e-01</stageThreshold>
      <weakClassifiers>
        <_>
          <internalNodes>
            0 -1 74 -3.5033747553825378e-02</internalNodes>
          <leafValues>
            -6.6511625051498413e-01 3.9205777645111084e-01</leafValues></_>
        <_>
          <internalNodes>
            0 -1 30 2.3008929565548897e-03</internalNodes>
          <leafValues>
            -1.8099315464496613e-01 7.8062701225280762e-01</leafValues></_>
        <_>
          <internalNodes>
            0 -1 45 -7.4636726640164852e-04</internalNodes>
          <leafValues>
            6.6579526662826538e-01 -1.9966599345207214e-01</leafValues></_>
        <_>
          <internalNodes>
            0 -1 265 -7.1937416214495897e-04</internalNodes>
          <leafValues>
            6.7891359329223633e-01 -1.9340193271636963e-01</leafValues></_>
        <_>
          <internalNodes>
            0 -1 44 -7.4102263897657394e-04</internalNodes>
          <leafValues>
            7.1024364233016968e-01 -2.0775987207889557e-01</leafValues></_>
        <_>
          <internalNodes>
            0 -1 327 -2.4778902297839522e-04</internalNodes>
          <leafValues>
            7.4110078811645508e-01 -1.0237023979425430e-01</leafValues></_>
        <_>
          <internalNodes>
            0 -1 288 -1.9591681193560362e-03</internalNodes>
          <leafValues>
            8.3812624216079712e-01 -1.5225498378276825e-01</leafValues></_>
        <_>
          <internalNodes>
            0 -1 43 4.7939072828739882e-04</internalNodes>
          <leafValues>
            -2.0300765335559845e-01 7.3144251108169556e-01</leafValues></_>
        <_>
          <internalNodes>
            0 -1 126 -8.8385003618896008e-04</internalNodes>
          <leafValues>
            6.6388690471649170e-01 -1.7177078127861023e-01</leafValues></_>
        <_>
          <internalNodes>
            0 -1 282 -5.8843614533543587e-04</internalNodes>
          <leafValues>
            6.6973549127578735e-01 -1.8757915496826172e-01</leafValues></_>
        <_>
          <internalNodes>
            0 -1 306 -2.0997570827603340e-03</internalNodes>
          <leafValues>
            7.2708827257156372e-01 -1.7804086208343506e-01</leafValues></_>
        <_>
          <internalNodes>
            0 -1 201 -1.1938745592487976e-04</internalNodes>
          <leafValues>
            4.8889297246932983e-01 -2.6786890625953674e-01</leafValues></_>
        <_>
          <internalNodes>
            0 -1 120 1.3596216216683388e-02</internalNodes>
          <leafValues>
            1.7864590883255005e-01 -8.0895125865936279e-01</leafValues></_></weakClassifiers></_>
    <!-- stage 3 -->
    <_>
      <maxWeakCount>17</maxWeakCount>
      <stageThreshold>-1.0970638990402222e+00</stageThreshold>
      <weakClassifiers>
        <_>
          <internalNodes>
            0 -1 25 3.3762179315090179e-02</internalNodes>
          <leafValues>
            3.7238493561744690e-01 -8.0722892284393311e-01</leafValues></_>
        <_>
          <internalNodes>
            0 -1 310 -3.0583550687879324e-04</internalNodes>
          <leafValues>
            6.3794279098510742e-01 -1.8123947083950043e-01</leafValues></_>
        <_>
          <internalNodes>
            0 -1 317 -3.0083314049988985e-04</internalNodes>
          <leafValues>
            5.8280360698699951e-01 -2.2438454627990723e-01</leafValues></_>
        <_>
          <internalNodes>
            0 -1 20 -3.7948600947856903e-03</internalNodes>
          <leafValues>
            3.9647290110588074e-01 -3.0468794703483582e-01</leafValues></_>
        <_>
          <internalNodes>
            0 -1 271 -4.7741818707436323e-04</internalNodes>
          <leafValues>
            8.0813354253768921e-01 -1.4463616907596588e-01</leafValues></_>
        <_>
          <internalNodes>
            0 -1 257 -5.6006701197475195e-04</internalNodes>
          <leafValues>
            7.6948189735412598e-01 -1.3911384344100952e-01</leafValues></_>
        <_>
          <internalNodes>
            0 -1 332 -2.6532183983363211e-04</internalNodes>
          <leafValues>
            5.2810192108154297e-01 -1.9803759455680847e-01</leafValues></_>
        <_>
          <internalNodes>
            0 -1 247 -5.6748499628156424e-04</internalNodes>
          <leafValues>
            4.8126548528671265e-01 -2.3261518776416779e-01</leafValues></_>
        <_>
          <internalNodes>
            0 -1 333 -3.6010719486512244e-04</internalNodes>
          <leafValues>
            6.4109939336776733e-01 -1.4197321236133575e-01</leafValues></_>
        <_>
          <internalNodes>
            0 -1 313 2.7375487843528390e-04</internalNodes>
          <leafValues>
            -1.9407007098197937e-01 5.8109277486801147e-01</leafValues></_>
        <_>
          <internalNodes>
            0 -1 202 -1.3183595146983862e-03</internalNodes>
          <leafValues>
            5.9424442052841187e-01 -1.5474160015583038e-01</leafValues></_>
        <_>
          <internalNodes>
            0 -1 41 -4.1398040950298309e-02</internalNodes>
          <leafValues>
            -6.4547175168991089e-01 2.0043599605560303e-01</leafValues></_>
        <_>
          <internalNodes>
            0 -1 361 -1.8262378871440887e-03</internalNodes>
          <leafValues>
            5.4576051235198975e-01 -2.1969380974769592e-01</leafValues></_>
        <_>
          <internalNodes>
            0 -1 352 -1.4753350988030434e-03</internalNodes>
          <leafValues>
            6.8358796834945679e-01 -1.5568156540393829e-01</leafValues></_>
        <_>
          <internalNodes>
            0 -1 178 2.8030818793922663e-04</internalNodes>
          <leafValues>
            -1.0503526777029037e-01 8.5469943284988403e-01</leafValues></_>
        <_>
          <internalNodes>
            0 -1 115 -2.9796406626701355e-02</internalNodes>
          <leafValues>
            -8.1580984592437744e-01 1.7380885779857635e-01</leafValues></_>
        <_>
          <internalNodes>
            0 -1 215 -4.3942674528807402e-04</internalNodes>
          <leafValues>
            6.2889611721038818e-01 -2.0097196102142334e-01</leafValues></_></weakClassifiers></_>
    <!-- stage 4 -->
    <_>
      <maxWeakCount>17</maxWeakCount>
      <stageThreshold>-9.5146006345748901e-01</stageThreshold>
      <weakClassifiers>
        <_>
          <internalNodes>
            0 -1 98 -6.8119512870907784e-03</internalNodes>
          <leafValues>
            5.1917099952697754e-01 -1.5905511379241943e-01</leafValues></_>
        <_>
          <internalNodes>
            0 -1 179 -1.5472448430955410e-03</internalNodes>
          <leafValues>
            6.9695323705673218e-01 -1.2371014803647995e-01</leafValues></_>
        <_>
          <internalNodes>
            0 -1 236 8.6410236690426245e-06</internalNodes>
          <leafValues>
            -3.1187176704406738e-01 3.6112478375434875e-01</leafValues></_>
        <_>
          <internalNodes>
            0 -1 241 -1.2748090084642172e-03</internalNodes>
          <leafValues>
            5.7785522937774658e-01 -1.9932940602302551e-01</leafValues></_>
        <_>
          <internalNodes>
            0 -1 103 2.8828125447034836e-02</internalNodes>
          <leafValues>
            1.5431332588195801e-01 -8.1980156898498535e-01</leafValues></_>
        <_>
          <internalNodes>
            0 -1 263 2.1777418442070484e-03</internalNodes>
          <leafValues>
            -1.4234599471092224e-01 8.2419937849044800e-01</leafValues></_>
        <_>
          <internalNodes>
            0 -1 107 1.0607851436361670e-04</internalNodes>
          <leafValues>
            -1.5917095541954041e-01 6.4747959375381470e-01</leafValues></_>
        <_>
          <internalNodes>
            0 -1 107 -2.5652490876382217e-05</internalNodes>
          <leafValues>
            4.7543889284133911e-01 -2.7184903621673584e-01</leafValues></_>
        <_>
          <internalNodes>
            0 -1 281 -5.5714545305818319e-04</internalNodes>
          <leafValues>
            7.5704985857009888e-01 -1.2239281088113785e-01</leafValues></_>
        <_>
          <internalNodes>
            0 -1 168 -6.5190985333174467e-04</internalNodes>
          <leafValues>
            8.2660108804702759e-01 -1.0486311465501785e-01</leafValues></_>
        <_>
          <internalNodes>
            0 -1 18 1.0308760683983564e-03</internalNodes>
          <leafValues>
            -1.5128903090953827e-01 5.8199602365493774e-01</leafValues></_>
        <_>
          <internalNodes>
            0 -1 168 8.1503530964255333e-04</internalNodes>
          <leafValues>
            -1.1192281544208527e-01 8.1814026832580566e-01</leafValues></_>
        <_>
          <internalNodes>
            0 -1 267 1.7864457913674414e-04</internalNodes>
          <leafValues>
            -2.5654065608978271e-01 4.2395341396331787e-01</leafValues></_>
        <_>
          <internalNodes>
            0 -1 141 -1.3687382452189922e-03</internalNodes>
          <leafValues>
            6.2169247865676880e-01 -1.4568480849266052e-01</leafValues></_>
        <_>
          <internalNodes>
            0 -1 104 -3.7817808333784342e-04</internalNodes>
          <leafValues>
            5.2407097816467285e-01 -1.8536706268787384e-01</leafValues></_>
        <_>
          <internalNodes>
            0 -1 311 -5.5519503075629473e-04</internalNodes>
          <leafValues>
            7.3756450414657593e-01 -1.4515736699104309e-01</leafValues></_>
        <_>
          <internalNodes>
            0 -1 90 2.7665052562952042e-02</internalNodes>
          <leafValues>
            1.3355404138565063e-01 -9.0270370244979858e-01</leafValues></_></weakClassifiers></_>
    <!-- stage 5 -->
    <_>
      <maxWeakCount>23</maxWeakCount>
      <stageThreshold>-1.0823673009872437e+00</stageThreshold>
      <weakClassifiers>
        <_>
          <internalNodes>
            0 -1 102 5.2176974713802338e-02</internalNodes>
          <leafValues>
            3.5590878129005432e-01 -7.5163400173187256e-01</leafValues></_>
        <_>
          <internalNodes>
            0 -1 189 -2.3496715584769845e-05</internalNodes>
          <leafValues>
            4.8855182528495789e-01 -1.7650249600410461e-01</leafValues></_>
        <_>
          <internalNodes>
            0 -1 219 -1.9802129827439785e-03</internalNodes>
          <leafValues>
            7.0991820096969604e-01 -1.4937773346900940e-01</leafValues></_>
        <_>
          <internalNodes>
            0 -1 258 -1.5147512312978506e-03</internalNodes>
          <leafValues>
            6.7673754692077637e-01 -1.5014076232910156e-01</leafValues></_>
        <_>
          <internalNodes>
            0 -1 351 -1.7324013169854879e-03</internalNodes>
          <leafValues>
            5.7324856519699097e-01 -1.9121804833412170e-01</leafValues></_>
        <_>
          <internalNodes>
            0 -1 121 -2.0888180006295443e-03</internalNodes>
          <leafValues>
            7.9084503650665283e-01 -7.2852186858654022e-02</leafValues></_>
        <_>
          <internalNodes>
            0 -1 320 7.8362238127738237e-04</internalNodes>
          <leafValues>
            -1.0466808080673218e-01 7.9251271486282349e-01</leafValues></_>
        <_>
          <internalNodes>
            0 -1 38 -1.2700862716883421e-03</internalNodes>
          <leafValues>
            2.8419834375381470e-01 -3.5422542691230774e-01</leafValues></_>
        <_>
          <internalNodes>
            0 -1 28 1.0108632268384099e-03</internalNodes>
          <leafValues>
            -1.5058884024620056e-01 6.9438099861145020e-01</leafValues></_>
        <_>
          <internalNodes>
            0 -1 111 2.8960533440113068e-02</internalNodes>
          <leafValues>
            2.3101216554641724e-01 -4.5580047369003296e-01</leafValues></_>
        <_>
          <internalNodes>
            0 -1 125 -5.0559832016006112e-04</internalNodes>
          <leafValues>
            6.6281872987747192e-01 -1.8234278261661530e-01</leafValues></_>
        <_>
          <internalNodes>
            0 -1 182 -2.9866560362279415e-04</internalNodes>
          <leafValues>
            8.8625156879425049e-01 -6.9795705378055573e-02</leafValues></_>
        <_>
          <internalNodes>
            0 -1 326 -5.0270941574126482e-04</internalNodes>
          <leafValues>
            6.4062309265136719e-01 -1.2590408325195312e-01</leafValues></_>
        <_>
          <internalNodes>
            0 -1 158 -1.8396996892988682e-03</internalNodes>
          <leafValues>
            7.0927590131759644e-01 -1.2427804619073868e-01</leafValues></_>
        <_>
          <internalNodes>
            0 -1 297 -4.6615506289526820e-04</internalNodes>
          <leafValues>
            8.6833864450454712e-01 -8.4431357681751251e-02</leafValues></_>
        <_>
          <internalNodes>
            0 -1 130 -1.8769115209579468e-02</internalNodes>
          <leafValues>
            -7.1053469181060791e-01 1.5232257544994354e-01</leafValues></_>
        <_>
          <internalNodes>
            0 -1 252 -7.3660048656165600e-04</internalNodes>
          <leafValues>
            9.3358427286148071e-01 -1.2052910029888153e-01</leafValues></_>
        <_>
          <internalNodes>
            0 -1 269 5.0505984108895063e-04</internalNodes>
          <leafValues>
            -5.7343106716871262e-02 9.2625457048416138e-01</leafValues></_>
        <_>
          <internalNodes>
            0 -1 331 -8.0173037713393569e-04</internalNodes>
          <leafValues>
            4.8079782724380493e-01 -1.6937381029129028e-01</leafValues></_>
        <_>
          <internalNodes>
            0 -1 145 9.3547841970575973e-06</internalNodes>
          <leafValues>
            -2.4032755196094513e-01 3.9822584390640259e-01</leafValues></_>
        <_>
          <internalNodes>
            0 -1 28 -7.2937074583023787e-04</internalNodes>
          <leafValues>
            6.4196550846099854e-01 -1.5162575244903564e-01</leafValues></_>
        <_>
          <internalNodes>
            0 -1 321 -2.3105400032363832e-04</internalNodes>
          <leafValues>
            6.6061359643936157e-01 -1.4060397446155548e-01</leafValues></_>
        <_>
          <internalNodes>
            0 -1 337 -7.9468876356258988e-04</internalNodes>
          <leafValues>
            8.5666221380233765e-01 -9.6274375915527344e-02</leafValues></_></weakClassifiers></_>
    <!-- stage 6 -->
    <_>
      <maxWeakCount>12</maxWeakCount>
      <stageThreshold>-9.0278369188308716e-01</stageThreshold>
      <weakClassifiers>
        <_>
          <internalNodes>
            0 -1 8 2.0470321178436279e-01</internalNodes>
          <leafValues>
            4.6367850899696350e-01 -6.5359479188919067e-01</leafValues></_>
        <_>
          <internalNodes>
            0 -1 21 -1.8203031271696091e-02</internalNodes>
          <leafValues>
            5.8208680152893066e-01 -2.8205114603042603e-01</leafValues></_>
        <_>
          <internalNodes>
            0 -1 294 -5.8839954435825348e-02</internalNodes>
          <leafValues>
            5.8048945665359497e-01 -2.7117758989334106e-01</leafValues></_>
        <_>
          <internalNodes>
            0 -1 338 1.2223992962390184e-04</internalNodes>
          <leafValues>
            2.1531212329864502e-01 -6.2509894371032715e-01</leafValues></_>
        <_>
          <internalNodes>
            0 -1 94 -1.6667818999849260e-04</internalNodes>
          <leafValues>
            -6.5020799636840820e-01 2.0506545901298523e-01</leafValues></_>
        <_>
          <internalNodes>
            0 -1 94 1.1773339065257460e-04</internalNodes>
          <leafValues>
            2.4158532917499542e-01 -6.4565724134445190e-01</leafValues></_>
        <_>
          <internalNodes>
            0 -1 159 -4.5687712728977203e-02</internalNodes>
          <leafValues>
            7.2689419984817505e-01 -2.1907977759838104e-01</leafValues></_>
        <_>
          <internalNodes>
            0 -1 237 1.0918339714407921e-02</internalNodes>
          <leafValues>
            -1.9874112308025360e-01 6.9096940755844116e-01</leafValues></_>
        <_>
          <internalNodes>
            0 -1 133 -1.9536379724740982e-02</internalNodes>
          <leafValues>
            5.2159792184829712e-01 -2.0218373835086823e-01</leafValues></_>
        <_>
          <internalNodes>
            0 -1 66 7.4874356389045715e-02</internalNodes>
          <leafValues>
            -1.1930731683969498e-01 7.5149381160736084e-01</leafValues></_>
        <_>
          <internalNodes>
            0 -1 322 -1.7425429541617632e-04</internalNodes>
          <leafValues>
            -6.1390054225921631e-01 1.9631105661392212e-01</leafValues></_>
        <_>
          <internalNodes>
            0 -1 96 1.3875721197109669e-04</internalNodes>
          <leafValues>
            1.8507783114910126e-01 -5.9302169084548950e-01</leafValues></_></weakClassifiers></_>
    <!-- stage 7 -->
    <_>
      <maxWeakCount>14</maxWeakCount>
      <stageThreshold>-1.0972958803176880e+00</stageThreshold>
      <weakClassifiers>
        <_>
          <internalNodes>
            0 -1 344 1.9063601212110370e-04</internalNodes>
          <leafValues>
            4.5323741436004639e-01 -4.7851002216339111e-01</leafValues></_>
        <_>
          <internalNodes>
            0 -1 15 -1.0211491584777832e-01</internalNodes>
          <leafValues>
            4.5837891101837158e-01 -3.1140556931495667e-01</leafValues></_>
        <_>
          <internalNodes>
            0 -1 344 -1.5486351912841201e-04</internalNodes>
          <leafValues>
            -6.4489650726318359e-01 2.3089173436164856e-01</leafValues></_>
        <_>
          <internalNodes>
            0 -1 296 -1.8565235659480095e-02</internalNodes>
          <leafValues>
            9.1145461797714233e-01 -1.8109063804149628e-01</leafValues></_>
        <_>
          <internalNodes>
            0 -1 54 -1.7485549324192107e-04</internalNodes>
          <leafValues>
            -6.6307610273361206e-01 1.8511977791786194e-01</leafValues></_>
        <_>
          <internalNodes>
            0 -1 54 1.6317842528223991e-04</internalNodes>
          <leafValues>
            2.2616453468799591e-01 -7.0179802179336548e-01</leafValues></_>
        <_>
          <internalNodes>
            0 -1 301 -1.5993710607290268e-02</internalNodes>
          <leafValues>
            7.9392981529235840e-01 -1.8834838271141052e-01</leafValues></_>
        <_>
          <internalNodes>
            0 -1 300 1.7220221459865570e-02</internalNodes>
          <leafValues>
            -1.4656500518321991e-01 7.8182911872863770e-01</leafValues></_>
        <_>
          <internalNodes>
            0 -1 79 -1.7969033797271550e-04</internalNodes>
          <leafValues>
            -6.9882023334503174e-01 2.3021544516086578e-01</leafValues></_>
        <_>
          <internalNodes>
            0 -1 52 -2.1255272440612316e-04</internalNodes>
          <leafValues>
            -6.5303522348403931e-01 2.1318948268890381e-01</leafValues></_>
        <_>
          <internalNodes>
            0 -1 51 1.7280207248404622e-04</internalNodes>
          <leafValues>
            2.0453284680843353e-01 -6.9564449787139893e-01</leafValues></_>
        <_>
          <internalNodes>
            0 -1 31 -1.0960489511489868e-02</internalNodes>
          <leafValues>
            7.1005344390869141e-01 -2.3531457781791687e-01</leafValues></_>
        <_>
          <internalNodes>
            0 -1 0 -1.1826927948277444e-04</internalNodes>
          <leafValues>
            -6.2525802850723267e-01 2.2625677287578583e-01</leafValues></_>
        <_>
          <internalNodes>
            0 -1 272 -1.4528650790452957e-02</internalNodes>
          <leafValues>
            7.6597994565963745e-01 -2.0620754361152649e-01</leafValues></_></weakClassifiers></_>
    <!-- stage 8 -->
    <_>
      <maxWeakCount>17</maxWeakCount>
      <stageThreshold>-1.0774536132812500e+00</stageThreshold>
      <weakClassifiers>
        <_>
          <internalNodes>
            0 -1 79 2.2454051941167563e-04</internalNodes>
          <leafValues>
            4.2813456058502197e-01 -5.4794520139694214e-01</leafValues></_>
        <_>
          <internalNodes>
            0 -1 81 -2.1148202358745039e-04</internalNodes>
          <leafValues>
            -6.9414889812469482e-01 1.9501172006130219e-01</leafValues></_>
        <_>
          <internalNodes>
            0 -1 80 3.5257634590379894e-04</internalNodes>
          <leafValues>
            1.9915929436683655e-01 -5.9273499250411987e-01</leafValues></_>
        <_>
          <internalNodes>
            0 -1 19 -1.6092035919427872e-02</internalNodes>
          <leafValues>
            4.6710374951362610e-01 -2.7411854267120361e-01</leafValues></_>
        <_>
          <internalNodes>
            0 -1 360 -1.1647746578091756e-04</internalNodes>
          <leafValues>
            -5.3727495670318604e-01 2.0277775824069977e-01</leafValues></_>
        <_>
          <internalNodes>
            0 -1 307 -1.1771088466048241e-02</internalNodes>
          <leafValues>
            7.2599244117736816e-01 -1.6873103380203247e-01</leafValues></_>
        <_>
          <internalNodes>
            0 -1 61 -5.2574253082275391e-01</internalNodes>
          <leafValues>
            6.4604002237319946e-01 -2.0564794540405273e-01</leafValues></_>
        <_>
          <internalNodes>
            0 -1 55 -2.0068965386599302e-04</internalNodes>
          <leafValues>
            -4.4764810800552368e-01 2.7050831913948059e-01</leafValues></_>
        <_>
          <internalNodes>
            0 -1 55 1.8078109133057296e-04</internalNodes>
          <leafValues>
            2.3129312694072723e-01 -4.8578310012817383e-01</leafValues></_>
        <_>
          <internalNodes>
            0 -1 75 2.1416697651147842e-02</internalNodes>
          <leafValues>
            -1.8841098248958588e-01 7.0477551221847534e-01</leafValues></_>
        <_>
          <internalNodes>
            0 -1 152 -2.2912494023330510e-04</internalNodes>
          <leafValues>
            -5.7548159360885620e-01 2.2838069498538971e-01</leafValues></_>
        <_>
          <internalNodes>
            0 -1 91 -1.0363458655774593e-02</internalNodes>
          <leafValues>
            4.2674461007118225e-01 -2.8138929605484009e-01</leafValues></_>
        <_>
          <internalNodes>
            0 -1 295 -1.7567742615938187e-02</internalNodes>
          <leafValues>
            6.8907696008682251e-01 -1.6307309269905090e-01</leafValues></_>
        <_>
          <internalNodes>
            0 -1 208 7.1492055431008339e-03</internalNodes>
          <leafValues>
            2.0506794750690460e-01 -5.9273171424865723e-01</leafValues></_>
        <_>
          <internalNodes>
            0 -1 355 2.4636939633637667e-04</internalNodes>
          <leafValues>
            1.7129293084144592e-01 -6.0758090019226074e-01</leafValues></_>
        <_>
          <internalNodes>
            0 -1 299 -7.4556940235197544e-03</internalNodes>
          <leafValues>
            4.5924142003059387e-01 -2.5296774506568909e-01</leafValues></_>
        <_>
          <internalNodes>
            0 -1 14 3.1099264742806554e-04</internalNodes>
          <leafValues>
            1.7978130280971527e-01 -6.8863904476165771e-01</leafValues></_></weakClassifiers></_>
    <!-- stage 9 -->
    <_>
      <maxWeakCount>13</maxWeakCount>
      <stageThreshold>-1.1884623765945435e+00</stageThreshold>
      <weakClassifiers>
        <_>
          <internalNodes>
            0 -1 353 -4.4748390791937709e-04</internalNodes>
          <leafValues>
            -5.4789274930953979e-01 4.0552651882171631e-01</leafValues></_>
        <_>
          <internalNodes>
            0 -1 49 -3.7964354851283133e-04</internalNodes>
          <leafValues>
            -5.7301235198974609e-01 2.2421839833259583e-01</leafValues></_>
        <_>
          <internalNodes>
            0 -1 49 2.7909135678783059e-04</internalNodes>
          <leafValues>
            2.2123321890830994e-01 -5.7151824235916138e-01</leafValues></_>
        <_>
          <internalNodes>
            0 -1 345 3.1621218658983707e-04</internalNodes>
          <leafValues>
            2.4366869032382965e-01 -4.7819894552230835e-01</leafValues></_>
        <_>
          <internalNodes>
            0 -1 22 -2.9807599261403084e-02</internalNodes>
          <leafValues>
            4.8224550485610962e-01 -2.6161900162696838e-01</leafValues></_>
        <_>
          <internalNodes>
            0 -1 122 -3.7147611146792769e-04</internalNodes>
          <leafValues>
            -5.7604444026947021e-01 1.8007706105709076e-01</leafValues></_>
        <_>
          <internalNodes>
            0 -1 12 -2.9031763551756740e-04</internalNodes>
          <leafValues>
            -5.7842493057250977e-01 2.1488001942634583e-01</leafValues></_>
        <_>
          <internalNodes>
            0 -1 266 -2.2937092930078506e-02</internalNodes>
          <leafValues>
            6.8857759237289429e-01 -1.6912023723125458e-01</leafValues></_>
        <_>
          <internalNodes>
            0 -1 157 5.3030194249004126e-04</internalNodes>
          <leafValues>
            2.7850663661956787e-01 -4.0721485018730164e-01</leafValues></_>
        <_>
          <internalNodes>
            0 -1 347 2.8739421395584941e-04</internalNodes>
          <leafValues>
            1.9448006153106689e-01 -5.7793509960174561e-01</leafValues></_>
        <_>
          <internalNodes>
            0 -1 348 -2.9669131617993116e-04</internalNodes>
          <leafValues>
            -6.4344102144241333e-01 2.0408833026885986e-01</leafValues></_>
        <_>
          <internalNodes>
            0 -1 293 2.3902452085167170e-04</internalNodes>
          <leafValues>
            2.0480521023273468e-01 -4.6165114641189575e-01</leafValues></_>
        <_>
          <internalNodes>
            0 -1 268 2.3320246487855911e-02</internalNodes>
          <leafValues>
            -1.5197223424911499e-01 7.1776819229125977e-01</leafValues></_></weakClassifiers></_>
    <!-- stage 10 -->
    <_>
      <maxWeakCount>19</maxWeakCount>
      <stageThreshold>-8.8710659742355347e-01</stageThreshold>
      <weakClassifiers>
        <_>
          <internalNodes>
            0 -1 7 2.0081259310245514e-02</internalNodes>
          <leafValues>
            4.2431762814521790e-01 -2.8900256752967834e-01</leafValues></_>
        <_>
          <internalNodes>
            0 -1 366 1.3145123375579715e-04</internalNodes>
          <leafValues>
            1.7463237047195435e-01 -5.7308018207550049e-01</leafValues></_>
        <_>
          <internalNodes>
            0 -1 48 -1.2990256072953343e-04</internalNodes>
          <leafValues>
            -4.3969810009002686e-01 1.7721906304359436e-01</leafValues></_>
        <_>
          <internalNodes>
            0 -1 233 4.7922004014253616e-03</internalNodes>
          <leafValues>
            -1.1582853645086288e-01 8.2642513513565063e-01</leafValues></_>
        <_>
          <internalNodes>
            0 -1 175 -6.4623128855600953e-04</internalNodes>
          <leafValues>
            2.2494083642959595e-01 -3.9466544985771179e-01</leafValues></_>
        <_>
          <internalNodes>
            0 -1 203 -1.2363184243440628e-02</internalNodes>
          <leafValues>
            8.1601774692535400e-01 -6.6453129053115845e-02</leafValues></_>
        <_>
          <internalNodes>
            0 -1 1 1.6031626728363335e-04</internalNodes>
          <leafValues>
            2.0303106307983398e-01 -4.0236443281173706e-01</leafValues></_>
        <_>
          <internalNodes>
            0 -1 166 -1.0083429515361786e-02</internalNodes>
          <leafValues>
            5.1235640048980713e-01 -1.8860958516597748e-01</leafValues></_>
        <_>
          <internalNodes>
            0 -1 88 8.0948192626237869e-03</internalNodes>
          <leafValues>
            -1.0530859977006912e-01 6.0696822404861450e-01</leafValues></_>
        <_>
          <internalNodes>
            0 -1 134 -1.1691495776176453e-02</internalNodes>
          <leafValues>
            7.8040581941604614e-01 -1.1081586778163910e-01</leafValues></_>
        <_>
          <internalNodes>
            0 -1 349 -1.3955462782178074e-04</internalNodes>
          <leafValues>
            -5.8172756433486938e-01 1.5178340673446655e-01</leafValues></_>
        <_>
          <internalNodes>
            0 -1 350 -1.0317953303456306e-02</internalNodes>
          <leafValues>
            3.4185346961021423e-01 -2.1967948973178864e-01</leafValues></_>
        <_>
          <internalNodes>
            0 -1 116 2.3991665802896023e-03</internalNodes>
          <leafValues>
            -1.0050946474075317e-01 6.5313464403152466e-01</leafValues></_>
        <_>
          <internalNodes>
            0 -1 339 -2.1685453248210251e-04</internalNodes>
          <leafValues>
            -4.2232826352119446e-01 1.8478038907051086e-01</leafValues></_>
        <_>
          <internalNodes>
            0 -1 64 1.3056665658950806e-01</internalNodes>
          <leafValues>
            -1.4990316331386566e-01 5.3051406145095825e-01</leafValues></_>
        <_>
          <internalNodes>
            0 -1 363 2.0958596724085510e-04</internalNodes>
          <leafValues>
            1.6785986721515656e-01 -4.4549652934074402e-01</leafValues></_>
        <_>
          <internalNodes>
            0 -1 235 -1.2540451716631651e-03</internalNodes>
          <leafValues>
            3.2650199532508850e-01 -2.3137241601943970e-01</leafValues></_>
        <_>
          <internalNodes>
            0 -1 284 3.2770750112831593e-03</internalNodes>
          <leafValues>
            -1.2481103837490082e-01 6.3821148872375488e-01</leafValues></_>
        <_>
          <internalNodes>
            0 -1 364 -1.6041459457483143e-04</internalNodes>
          <leafValues>
            -5.4669988155364990e-01 1.5823969244956970e-01</leafValues></_></weakClassifiers></_>
    <!-- stage 11 -->
    <_>
      <maxWeakCount>19</maxWeakCount>
      <stageThreshold>-1.2114920616149902e+00</stageThreshold>
      <weakClassifiers>
        <_>
          <internalNodes>
            0 -1 83 2.6960251852869987e-04</internalNodes>
          <leafValues>
            4.1885626316070557e-01 -4.6405228972434998e-01</leafValues></_>
        <_>
          <internalNodes>
            0 -1 84 -2.9379641637206078e-04</internalNodes>
          <leafValues>
            -4.9284389615058899e-01 2.1588321030139923e-01</leafValues></_>
        <_>
          <internalNodes>
            0 -1 354 -2.0951686019543558e-04</internalNodes>
          <leafValues>
            -4.9453771114349365e-01 1.7411322891712189e-01</leafValues></_>
        <_>
          <internalNodes>
            0 -1 95 1.5752846957184374e-04</internalNodes>
          <leafValues>
            1.2560628354549408e-01 -6.1763179302215576e-01</leafValues></_>
        <_>
          <internalNodes>
            0 -1 82 1.7690740060061216e-04</internalNodes>
          <leafValues>
            1.4148737490177155e-01 -5.5367124080657959e-01</leafValues></_>
        <_>
          <internalNodes>
            0 -1 233 4.4394927099347115e-03</internalNodes>
          <leafValues>
            -1.0660100728273392e-01 7.7371299266815186e-01</leafValues></_>
        <_>
          <internalNodes>
            0 -1 234 -9.1417732619447634e-06</internalNodes>
          <leafValues>
            2.9656344652175903e-01 -3.3209592103958130e-01</leafValues></_>
        <_>
          <internalNodes>
            0 -1 172 -8.1923766992986202e-04</internalNodes>
          <leafValues>
            2.8304439783096313e-01 -3.2941147685050964e-01</leafValues></_>
        <_>
          <internalNodes>
            0 -1 129 -8.1231832504272461e-02</internalNodes>
          <leafValues>
            -7.3184067010879517e-01 1.1532992869615555e-01</leafValues></_>
        <_>
          <internalNodes>
            0 -1 346 1.6961999062914401e-04</internalNodes>
          <leafValues>
            1.5131220221519470e-01 -4.9150341749191284e-01</leafValues></_>
        <_>
          <internalNodes>
            0 -1 242 3.9330683648586273e-03</internalNodes>
          <leafValues>
            -1.3415104150772095e-01 7.6813614368438721e-01</leafValues></_>
        <_>
          <internalNodes>
            0 -1 358 -2.1433204528875649e-04</internalNodes>
          <leafValues>
            -4.8942247033119202e-01 1.9358208775520325e-01</leafValues></_>
        <_>
          <internalNodes>
            0 -1 357 3.1762022990733385e-04</internalNodes>
          <leafValues>
            1.5770304203033447e-01 -5.3696864843368530e-01</leafValues></_>
        <_>
          <internalNodes>
            0 -1 153 -1.4542420394718647e-02</internalNodes>
          <leafValues>
            5.4677814245223999e-01 -1.5336821973323822e-01</leafValues></_>
        <_>
          <internalNodes>
            0 -1 32 -2.5002360343933105e-03</internalNodes>
          <leafValues>
            4.5616579055786133e-01 -1.6431820392608643e-01</leafValues></_>
        <_>
          <internalNodes>
            0 -1 24 1.0531857609748840e-01</internalNodes>
          <leafValues>
            1.7158570885658264e-01 -4.8754820227622986e-01</leafValues></_>
        <_>
          <internalNodes>
            0 -1 62 -3.2183735165745020e-03</internalNodes>
          <leafValues>
            1.7544710636138916e-01 -4.7549369931221008e-01</leafValues></_>
        <_>
          <internalNodes>
            0 -1 220 -1.1287727393209934e-03</internalNodes>
          <leafValues>
            8.5737752914428711e-01 -9.8866127431392670e-02</leafValues></_>
        <_>
          <internalNodes>
            0 -1 108 3.8485977798700333e-02</internalNodes>
          <leafValues>
            1.3547177612781525e-01 -6.9350004196166992e-01</leafValues></_></weakClassifiers></_>
    <!-- stage 12 -->
    <_>
      <maxWeakCount>21</maxWeakCount>
      <stageThreshold>-9.4584453105926514e-01</stageThreshold>
      <weakClassifiers>
        <_>
          <internalNodes>
            0 -1 239 -1.7790594138205051e-03</internalNodes>
          <leafValues>
            7.6608186960220337e-01 1.0969793051481247e-01</leafValues></_>
        <_>
          <internalNodes>
            0 -1 180 -1.7335951561108232e-03</internalNodes>
          <leafValues>
            6.0363537073135376e-01 -9.7425594925880432e-02</leafValues></_>
        <_>
          <internalNodes>
            0 -1 16 -1.7555745318531990e-02</internalNodes>
          <leafValues>
            3.4717020392417908e-01 -2.4269184470176697e-01</leafValues></_>
        <_>
          <internalNodes>
            0 -1 270 -2.1840434055775404e-03</internalNodes>
          <leafValues>
            6.6039586067199707e-01 -1.3782574236392975e-01</leafValues></_>
        <_>
          <internalNodes>
            0 -1 42 -5.1458098459988832e-04</internalNodes>
          <leafValues>
            6.0431194305419922e-01 -1.1930014938116074e-01</leafValues></_>
        <_>
          <internalNodes>
            0 -1 89 1.7361540347337723e-02</internalNodes>
          <leafValues>
            1.1246307194232941e-01 -7.5639307498931885e-01</leafValues></_>
        <_>
          <internalNodes>
            0 -1 317 -4.2174599366262555e-04</internalNodes>
          <leafValues>
            5.6883651018142700e-01 -1.2664304673671722e-01</leafValues></_>
        <_>
          <internalNodes>
            0 -1 243 -1.1415090411901474e-03</internalNodes>
          <leafValues>
            6.0993343591690063e-01 -1.3694873452186584e-01</leafValues></_>
        <_>
          <internalNodes>
            0 -1 60 -7.6503296440932900e-05</internalNodes>
          <leafValues>
            -4.6454000473022461e-01 1.8681836128234863e-01</leafValues></_>
        <_>
          <internalNodes>
            0 -1 212 -4.9798074178397655e-04</internalNodes>
          <leafValues>
            7.9370355606079102e-01 -1.2758679687976837e-01</leafValues></_>
        <_>
          <internalNodes>
            0 -1 341 -1.2555371969938278e-02</internalNodes>
          <leafValues>
            6.1684042215347290e-01 -1.0627433657646179e-01</leafValues></_>
        <_>
          <internalNodes>
            0 -1 291 -4.8251618864014745e-04</internalNodes>
          <leafValues>
            -4.8074045777320862e-01 1.8018488585948944e-01</leafValues></_>
        <_>
          <internalNodes>
            0 -1 176 -5.4470467148348689e-04</internalNodes>
          <leafValues>
            6.8604552745819092e-01 -1.3350538909435272e-01</leafValues></_>
        <_>
          <internalNodes>
            0 -1 29 3.4093405120074749e-03</internalNodes>
          <leafValues>
            -9.4579093158245087e-02 7.3927527666091919e-01</leafValues></_>
        <_>
          <internalNodes>
            0 -1 238 4.7506939154118299e-04</internalNodes>
          <leafValues>
            -6.1777237802743912e-02 8.7782126665115356e-01</leafValues></_>
        <_>
          <internalNodes>
            0 -1 278 1.2613676954060793e-03</internalNodes>
          <leafValues>
            -8.5228733718395233e-02 7.7136629819869995e-01</leafValues></_>
        <_>
          <internalNodes>
            0 -1 119 -1.6499239718541503e-03</internalNodes>
          <leafValues>
            2.3744967579841614e-01 -3.2838350534439087e-01</leafValues></_>
        <_>
          <internalNodes>
            0 -1 147 -1.3000037521123886e-02</internalNodes>
          <leafValues>
            -5.8761328458786011e-01 1.6408105194568634e-01</leafValues></_>
        <_>
          <internalNodes>
            0 -1 298 -1.8036770634353161e-03</internalNodes>
          <leafValues>
            6.1719495058059692e-01 -1.5479880571365356e-01</leafValues></_>
        <_>
          <internalNodes>
            0 -1 336 -1.6646829899400473e-03</internalNodes>
          <leafValues>
            5.5884116888046265e-01 -1.3009142875671387e-01</leafValues></_>
        <_>
          <internalNodes>
            0 -1 77 -6.3515041256323457e-04</internalNodes>
          <leafValues>
            7.0424753427505493e-01 -1.1079928278923035e-01</leafValues></_></weakClassifiers></_>
    <!-- stage 13 -->
    <_>
      <maxWeakCount>21</maxWeakCount>
      <stageThreshold>-1.1569476127624512e+00</stageThreshold>
      <weakClassifiers>
        <_>
          <internalNodes>
            0 -1 80 -2.4361116811633110e-04</internalNodes>
          <leafValues>
            -3.2291665673255920e-01 4.3092104792594910e-01</leafValues></_>
        <_>
          <internalNodes>
            0 -1 1 -3.4824220347218215e-04</internalNodes>
          <leafValues>
            -5.3615236282348633e-01 1.8352308869361877e-01</leafValues></_>
        <_>
          <internalNodes>
            0 -1 78 3.8900508661754429e-04</internalNodes>
          <leafValues>
            2.0929539203643799e-01 -4.6214392781257629e-01</leafValues></_>
        <_>
          <internalNodes>
            0 -1 71 -2.3084139451384544e-02</internalNodes>
          <leafValues>
            -5.3690797090530396e-01 1.1819200217723846e-01</leafValues></_>
        <_>
          <internalNodes>
            0 -1 155 -9.2025715857744217e-03</internalNodes>
          <leafValues>
            6.3038444519042969e-01 -1.1635958403348923e-01</leafValues></_>
        <_>
          <internalNodes>
            0 -1 124 1.2209449894726276e-02</internalNodes>
          <leafValues>
            -1.9027303159236908e-01 5.6189697980880737e-01</leafValues></_>
        <_>
          <internalNodes>
            0 -1 87 -8.7811058619990945e-05</internalNodes>
          <leafValues>
            -4.3970504403114319e-01 2.0045651495456696e-01</leafValues></_>
        <_>
          <internalNodes>
            0 -1 160 9.8529011011123657e-02</internalNodes>
          <leafValues>
            -1.6781592369079590e-01 5.4708623886108398e-01</leafValues></_>
        <_>
          <internalNodes>
            0 -1 85 1.6983179375529289e-04</internalNodes>
          <leafValues>
            2.1503548324108124e-01 -3.7243986129760742e-01</leafValues></_>
        <_>
          <internalNodes>
            0 -1 209 -8.6891915998421609e-05</internalNodes>
          <leafValues>
            2.1506324410438538e-01 -3.1551599502563477e-01</leafValues></_>
        <_>
          <internalNodes>
            0 -1 343 -2.5849731173366308e-04</internalNodes>
          <leafValues>
            -4.5259922742843628e-01 1.7175331711769104e-01</leafValues></_>
        <_>
          <internalNodes>
            0 -1 330 4.2641995241865516e-04</internalNodes>
          <leafValues>
            1.3209979236125946e-01 -5.0378155708312988e-01</leafValues></_>
        <_>
          <internalNodes>
            0 -1 151 -1.1064166203141212e-02</internalNodes>
          <leafValues>
            5.4211968183517456e-01 -1.3419328629970551e-01</leafValues></_>
        <_>
          <internalNodes>
            0 -1 46 1.4357207342982292e-02</internalNodes>
          <leafValues>
            -1.8636083602905273e-01 4.9541509151458740e-01</leafValues></_>
        <_>
          <internalNodes>
            0 -1 174 -1.6532023437321186e-03</internalNodes>
          <leafValues>
            2.6888269186019897e-01 -2.8242880105972290e-01</leafValues></_>
        <_>
          <internalNodes>
            0 -1 3 4.2798311915248632e-04</internalNodes>
          <leafValues>
            1.9458670914173126e-01 -3.8525027036666870e-01</leafValues></_>
        <_>
          <internalNodes>
            0 -1 99 -1.8419399857521057e-02</internalNodes>
          <leafValues>
            4.9814224243164062e-01 -1.6915084421634674e-01</leafValues></_>
        <_>
          <internalNodes>
            0 -1 63 -9.2680245637893677e-02</internalNodes>
          <leafValues>
            3.7797176837921143e-01 -1.8524771928787231e-01</leafValues></_>
        <_>
          <internalNodes>
            0 -1 69 8.5503943264484406e-03</internalNodes>
          <leafValues>
            -1.5822792053222656e-01 5.2077800035476685e-01</leafValues></_>
        <_>
          <internalNodes>
            0 -1 292 -1.0762068443000317e-02</internalNodes>
          <leafValues>
            2.8033071756362915e-01 -2.6450094580650330e-01</leafValues></_>
        <_>
          <internalNodes>
            0 -1 214 5.6693395599722862e-03</internalNodes>
          <leafValues>
            -1.3837838172912598e-01 5.8036792278289795e-01</leafValues></_></weakClassifiers></_>
    <!-- stage 14 -->
    <_>
      <maxWeakCount>15</maxWeakCount>
      <stageThreshold>-1.2113456726074219e+00</stageThreshold>
      <weakClassifiers>
        <_>
          <internalNodes>
            0 -1 10 1.0831456165760756e-04</internalNodes>
          <leafValues>
            4.4238516688346863e-01 -4.1504177451133728e-01</leafValues></_>
        <_>
          <internalNodes>
            0 -1 123 -3.3096697181463242e-02</internalNodes>
          <leafValues>
            5.6333369016647339e-01 -2.3116503655910492e-01</leafValues></_>
        <_>
          <internalNodes>
            0 -1 328 -7.3282790253870189e-05</internalNodes>
          <leafValues>
            -5.0326049327850342e-01 2.4079409241676331e-01</leafValues></_>
        <_>
          <internalNodes>
            0 -1 328 8.7758482550270855e-05</internalNodes>
          <leafValues>
            1.9841016829013824e-01 -5.5086630582809448e-01</leafValues></_>
        <_>
          <internalNodes>
            0 -1 9 -7.1936461608856916e-05</internalNodes>
          <leafValues>
            -5.3397905826568604e-01 1.9105093181133270e-01</leafValues></_>
        <_>
          <internalNodes>
            0 -1 101 1.5322868525981903e-01</internalNodes>
          <leafValues>
            -1.3043241202831268e-01 8.7383759021759033e-01</leafValues></_>
        <_>
          <internalNodes>
            0 -1 210 -5.0007575191557407e-03</internalNodes>
          <leafValues>
            -7.4979346990585327e-01 1.5491449832916260e-01</leafValues></_>
        <_>
          <internalNodes>
            0 -1 188 5.8816364035010338e-03</internalNodes>
          <leafValues>
            1.2836913764476776e-01 -7.8064876794815063e-01</leafValues></_>
        <_>
          <internalNodes>
            0 -1 109 9.2668335128109902e-05</internalNodes>
          <leafValues>
            1.4985811710357666e-01 -5.7137006521224976e-01</leafValues></_>
        <_>
          <internalNodes>
            0 -1 109 -4.8955691454466432e-05</internalNodes>
          <leafValues>
            -4.7914907336235046e-01 2.0927734673023224e-01</leafValues></_>
        <_>
          <internalNodes>
            0 -1 65 2.5873484089970589e-02</internalNodes>
          <leafValues>
            1.1296722292900085e-01 -7.3543953895568848e-01</leafValues></_>
        <_>
          <internalNodes>
            0 -1 4 5.8210335671901703e-02</internalNodes>
          <leafValues>
            -1.7090320587158203e-01 6.1587095260620117e-01</leafValues></_>
        <_>
          <internalNodes>
            0 -1 359 -7.8262019087560475e-05</internalNodes>
          <leafValues>
            -4.6240603923797607e-01 2.0190584659576416e-01</leafValues></_>
        <_>
          <internalNodes>
            0 -1 93 -1.1191051453351974e-02</internalNodes>
          <leafValues>
            -7.2224122285842896e-01 1.2525142729282379e-01</leafValues></_>
        <_>
          <internalNodes>
            0 -1 112 1.6970906406641006e-02</internalNodes>
          <leafValues>
            1.0116630047559738e-01 -8.2253235578536987e-01</leafValues></_></weakClassifiers></_>
    <!-- stage 15 -->
    <_>
      <maxWeakCount>29</maxWeakCount>
      <stageThreshold>-7.6255750656127930e-01</stageThreshold>
      <weakClassifiers>
        <_>
          <internalNodes>
            0 -1 329 -8.8063141447491944e-05</internalNodes>
          <leafValues>
            -2.7974277734756470e-01 3.7781226634979248e-01</leafValues></_>
        <_>
          <internalNodes>
            0 -1 329 6.4790743635967374e-05</internalNodes>
          <leafValues>
            1.5630388259887695e-01 -4.4861102104187012e-01</leafValues></_>
        <_>
          <internalNodes>
            0 -1 76 -9.5592737197875977e-03</internalNodes>
          <leafValues>
            -6.5633785724639893e-01 8.7059140205383301e-02</leafValues></_>
        <_>
          <internalNodes>
            0 -1 149 -2.4026404134929180e-03</internalNodes>
          <leafValues>
            6.4725780487060547e-01 -8.9164085686206818e-02</leafValues></_>
        <_>
          <internalNodes>
            0 -1 314 1.1544812470674515e-02</internalNodes>
          <leafValues>
            -2.0832107961177826e-01 3.0266278982162476e-01</leafValues></_>
        <_>
          <internalNodes>
            0 -1 171 -4.2609617114067078e-02</internalNodes>
          <leafValues>
            5.1904302835464478e-01 -1.2025938928127289e-01</leafValues></_>
        <_>
          <internalNodes>
            0 -1 249 5.1841856911778450e-03</internalNodes>
          <leafValues>
            1.7030714452266693e-01 -4.8112076520919800e-01</leafValues></_>
        <_>
          <internalNodes>
            0 -1 165 -8.4927765419706702e-04</internalNodes>
          <leafValues>
            6.9620466232299805e-01 -1.0948478430509567e-01</leafValues></_>
        <_>
          <internalNodes>
            0 -1 114 -1.5004768967628479e-02</internalNodes>
          <leafValues>
            -6.2848311662673950e-01 1.1885844916105270e-01</leafValues></_>
        <_>
          <internalNodes>
            0 -1 199 -7.3840934783220291e-04</internalNodes>
          <leafValues>
            8.0308109521865845e-01 -8.7493747472763062e-02</leafValues></_>
        <_>
          <internalNodes>
            0 -1 195 -3.8152422755956650e-02</internalNodes>
          <leafValues>
            -8.3295273780822754e-01 9.7642615437507629e-02</leafValues></_>
        <_>
          <internalNodes>
            0 -1 17 5.2517496049404144e-02</internalNodes>
          <leafValues>
            -1.4148737490177155e-01 4.9488481879234314e-01</leafValues></_>
        <_>
          <internalNodes>
            0 -1 357 -3.5919697256758809e-04</internalNodes>
          <leafValues>
            -4.8482513427734375e-01 1.2687027454376221e-01</leafValues></_>
        <_>
          <internalNodes>
            0 -1 227 -5.5122363846749067e-04</internalNodes>
          <leafValues>
            7.1900552511215210e-01 -9.0736843645572662e-02</leafValues></_>
        <_>
          <internalNodes>
            0 -1 67 -6.0869602020829916e-04</internalNodes>
          <leafValues>
            6.4144843816757202e-01 -8.8827319443225861e-02</leafValues></_>
        <_>
          <internalNodes>
            0 -1 275 -6.8303727312013507e-04</internalNodes>
          <leafValues>
            6.6251945495605469e-01 -8.3638906478881836e-02</leafValues></_>
        <_>
          <internalNodes>
            0 -1 325 9.6723722526803613e-04</internalNodes>
          <leafValues>
            -1.1424473673105240e-01 4.9437165260314941e-01</leafValues></_>
        <_>
          <internalNodes>
            0 -1 228 5.4439520463347435e-03</internalNodes>
          <leafValues>
            1.0989785194396973e-01 -6.4339774847030640e-01</leafValues></_>
        <_>
          <internalNodes>
            0 -1 40 -9.7851045429706573e-03</internalNodes>
          <leafValues>
            2.7098557353019714e-01 -2.3062460124492645e-01</leafValues></_>
        <_>
          <internalNodes>
            0 -1 290 1.0139853111468256e-04</internalNodes>
          <leafValues>
            1.2738262116909027e-01 -4.6236848831176758e-01</leafValues></_>
        <_>
          <internalNodes>
            0 -1 191 -1.6566333360970020e-03</internalNodes>
          <leafValues>
            5.0509870052337646e-01 -1.2628272175788879e-01</leafValues></_>
        <_>
          <internalNodes>
            0 -1 324 6.0949618928134441e-03</internalNodes>
          <leafValues>
            1.1317496001720428e-01 -6.0388040542602539e-01</leafValues></_>
        <_>
          <internalNodes>
            0 -1 225 -7.5330137042328715e-04</internalNodes>
          <leafValues>
            6.7208492755889893e-01 -1.0054942965507507e-01</leafValues></_>
        <_>
          <internalNodes>
            0 -1 196 -8.2382299005985260e-03</internalNodes>
          <leafValues>
            -5.7568359375000000e-01 1.2113561481237411e-01</leafValues></_>
        <_>
          <internalNodes>
            0 -1 136 -3.6341879516839981e-02</internalNodes>
          <leafValues>
            3.3382368087768555e-01 -2.5779327750205994e-01</leafValues></_>
        <_>
          <internalNodes>
            0 -1 259 3.0195545405149460e-03</internalNodes>
          <leafValues>
            -1.0230422765016556e-01 6.6712695360183716e-01</leafValues></_>
        <_>
          <internalNodes>
            0 -1 113 -3.3611144870519638e-02</internalNodes>
          <leafValues>
            -7.5109183788299561e-01 9.9188089370727539e-02</leafValues></_>
        <_>
          <internalNodes>
            0 -1 198 -8.4158945828676224e-03</internalNodes>
          <leafValues>
            -7.6126480102539062e-01 8.0235928297042847e-02</leafValues></_>
        <_>
          <internalNodes>
            0 -1 187 -7.8193109948188066e-04</internalNodes>
          <leafValues>
            7.2281736135482788e-01 -1.0197293013334274e-01</leafValues></_></weakClassifiers></_>
    <!-- stage 16 -->
    <_>
      <maxWeakCount>25</maxWeakCount>
      <stageThreshold>-8.7432873249053955e-01</stageThreshold>
      <weakClassifiers>
        <_>
          <internalNodes>
            0 -1 56 -9.5852315425872803e-03</internalNodes>
          <leafValues>
            5.4792898893356323e-01 -8.3443708717823029e-02</leafValues></_>
        <_>
          <internalNodes>
            0 -1 95 -5.4279807955026627e-05</internalNodes>
          <leafValues>
            -3.9055925607681274e-01 1.9530077278614044e-01</leafValues></_>
        <_>
          <internalNodes>
            0 -1 53 -5.2116123697487637e-05</internalNodes>
          <leafValues>
            -3.9315029978752136e-01 1.6732348501682281e-01</leafValues></_>
        <_>
          <internalNodes>
            0 -1 185 -3.0662887729704380e-03</internalNodes>
          <leafValues>
            5.9943050146102905e-01 -1.1152818799018860e-01</leafValues></_>
        <_>
          <internalNodes>
            0 -1 58 -4.2247340083122253e-02</internalNodes>
          <leafValues>
            4.1334542632102966e-01 -1.6853450238704681e-01</leafValues></_>
        <_>
          <internalNodes>
            0 -1 240 -7.3771341703832150e-04</internalNodes>
          <leafValues>
            6.4572298526763916e-01 -1.0482806712388992e-01</leafValues></_>
        <_>
          <internalNodes>
            0 -1 73 -3.3022549003362656e-02</internalNodes>
          <leafValues>
            4.0232050418853760e-01 -1.5527841448783875e-01</leafValues></_>
        <_>
          <internalNodes>
            0 -1 222 -1.2727082706987858e-02</internalNodes>
          <leafValues>
            3.2875582575798035e-01 -2.2911800444126129e-01</leafValues></_>
        <_>
          <internalNodes>
            0 -1 156 -1.0596629232168198e-02</internalNodes>
          <leafValues>
            -5.5830222368240356e-01 1.2076929956674576e-01</leafValues></_>
        <_>
          <internalNodes>
            0 -1 167 1.6154602169990540e-02</internalNodes>
          <leafValues>
            -8.3782918751239777e-02 7.5863492488861084e-01</leafValues></_>
        <_>
          <internalNodes>
            0 -1 223 -1.8839959520846605e-03</internalNodes>
          <leafValues>
            4.6906802058219910e-01 -1.2874953448772430e-01</leafValues></_>
        <_>
          <internalNodes>
            0 -1 138 2.1592974662780762e-02</internalNodes>
          <leafValues>
            7.9858027398586273e-02 -8.4695744514465332e-01</leafValues></_>
        <_>
          <internalNodes>
            0 -1 163 -1.0938358027487993e-03</internalNodes>
          <leafValues>
            2.2817198932170868e-01 -2.6595419645309448e-01</leafValues></_>
        <_>
          <internalNodes>
            0 -1 231 -1.2759851524606347e-03</internalNodes>
          <leafValues>
            9.2848992347717285e-01 -7.7557452023029327e-02</leafValues></_>
        <_>
          <internalNodes>
            0 -1 162 -5.1203491166234016e-03</internalNodes>
          <leafValues>
            -6.0720962285995483e-01 1.2973132729530334e-01</leafValues></_>
        <_>
          <internalNodes>
            0 -1 170 -7.5353536522015929e-04</internalNodes>
          <leafValues>
            4.0326240658760071e-01 -1.8077227473258972e-01</leafValues></_>
        <_>
          <internalNodes>
            0 -1 6 -2.7518934011459351e-01</internalNodes>
          <leafValues>
            5.3018397092819214e-01 -1.1207542568445206e-01</leafValues></_>
        <_>
          <internalNodes>
            0 -1 245 -6.7545834463089705e-04</internalNodes>
          <leafValues>
            7.1676295995712280e-01 -1.0205159336328506e-01</leafValues></_>
        <_>
          <internalNodes>
            0 -1 279 -5.2013058215379715e-02</internalNodes>
          <leafValues>
            7.0996356010437012e-01 -8.6619488894939423e-02</leafValues></_>
        <_>
          <internalNodes>
            0 -1 285 -1.3028921093791723e-03</internalNodes>
          <leafValues>
            4.8279997706413269e-01 -1.4470192790031433e-01</leafValues></_>
        <_>
          <internalNodes>
            0 -1 137 -1.5467523597180843e-02</internalNodes>
          <leafValues>
            -4.2952185869216919e-01 1.6072303056716919e-01</leafValues></_>
        <_>
          <internalNodes>
            0 -1 280 -3.2363504171371460e-02</internalNodes>
          <leafValues>
            6.2120097875595093e-01 -1.1132477223873138e-01</leafValues></_>
        <_>
          <internalNodes>
            0 -1 183 -2.7611199766397476e-03</internalNodes>
          <leafValues>
            -5.0011813640594482e-01 1.4538264274597168e-01</leafValues></_>
        <_>
          <internalNodes>
            0 -1 204 -4.6374085359275341e-03</internalNodes>
          <leafValues>
            6.3926887512207031e-01 -1.1956301331520081e-01</leafValues></_>
        <_>
          <internalNodes>
            0 -1 140 -2.7955439873039722e-03</internalNodes>
          <leafValues>
            3.2222667336463928e-01 -1.9868455827236176e-01</leafValues></_></weakClassifiers></_>
    <!-- stage 17 -->
    <_>
      <maxWeakCount>32</maxWeakCount>
      <stageThreshold>-9.2473810911178589e-01</stageThreshold>
      <weakClassifiers>
        <_>
          <internalNodes>
            0 -1 2 4.2639172170311213e-04</internalNodes>
          <leafValues>
            3.3672726154327393e-01 -2.8000000119209290e-01</leafValues></_>
        <_>
          <internalNodes>
            0 -1 319 -1.5628184191882610e-03</internalNodes>
          <leafValues>
            3.6298030614852905e-01 -1.5641406178474426e-01</leafValues></_>
        <_>
          <internalNodes>
            0 -1 340 -1.4431910589337349e-02</internalNodes>
          <leafValues>
            4.7610682249069214e-01 -1.0867784172296524e-01</leafValues></_>
        <_>
          <internalNodes>
            0 -1 286 -9.3051942531019449e-04</internalNodes>
          <leafValues>
            3.9996948838233948e-01 -1.3412421941757202e-01</leafValues></_>
        <_>
          <internalNodes>
            0 -1 23 -7.6350290328264236e-03</internalNodes>
          <leafValues>
            5.0906234979629517e-01 -1.3847656548023224e-01</leafValues></_>
        <_>
          <internalNodes>
            0 -1 254 -6.8876682780683041e-04</internalNodes>
          <leafValues>
            5.8726668357849121e-01 -8.0036476254463196e-02</leafValues></_>
        <_>
          <internalNodes>
            0 -1 173 -1.4402454253286123e-03</internalNodes>
          <leafValues>
            2.5616365671157837e-01 -2.5617206096649170e-01</leafValues></_>
        <_>
          <internalNodes>
            0 -1 221 4.6816505491733551e-03</internalNodes>
          <leafValues>
            -4.3563321232795715e-02 8.0179435014724731e-01</leafValues></_>
        <_>
          <internalNodes>
            0 -1 232 -3.6642923078034073e-06</internalNodes>
          <leafValues>
            2.4204124510288239e-01 -2.3184019327163696e-01</leafValues></_>
        <_>
          <internalNodes>
            0 -1 5 -1.3102316856384277e-01</internalNodes>
          <leafValues>
            -6.1646854877471924e-01 8.3613887429237366e-02</leafValues></_>
        <_>
          <internalNodes>
            0 -1 315 -5.0773464143276215e-02</internalNodes>
          <leafValues>
            6.2175863981246948e-01 -9.3127518892288208e-02</leafValues></_>
        <_>
          <internalNodes>
            0 -1 253 4.3411255319369957e-06</internalNodes>
          <leafValues>
            -2.4910293519496918e-01 2.6361364126205444e-01</leafValues></_>
        <_>
          <internalNodes>
            0 -1 128 -4.3980130612908397e-06</internalNodes>
          <leafValues>
            2.2371535003185272e-01 -2.5199466943740845e-01</leafValues></_>
        <_>
          <internalNodes>
            0 -1 97 -3.4375707036815584e-04</internalNodes>
          <leafValues>
            -4.2560866475105286e-01 1.2516728043556213e-01</leafValues></_>
        <_>
          <internalNodes>
            0 -1 148 -7.3514191899448633e-04</internalNodes>
          <leafValues>
            7.8613466024398804e-01 -7.9171612858772278e-02</leafValues></_>
        <_>
          <internalNodes>
            0 -1 135 3.0472125858068466e-02</internalNodes>
          <leafValues>
            -1.2591885030269623e-01 4.1275668144226074e-01</leafValues></_>
        <_>
          <internalNodes>
            0 -1 224 -9.5217209309339523e-04</internalNodes>
          <leafValues>
            6.7443573474884033e-01 -8.4034308791160583e-02</leafValues></_>
        <_>
          <internalNodes>
            0 -1 39 -2.2959159687161446e-03</internalNodes>
          <leafValues>
            4.1954228281974792e-01 -1.2562094628810883e-01</leafValues></_>
        <_>
          <internalNodes>
            0 -1 127 1.1380867660045624e-01</internalNodes>
          <leafValues>
            -7.2120621800422668e-02 6.8331563472747803e-01</leafValues></_>
        <_>
          <internalNodes>
            0 -1 68 -4.8192791640758514e-02</internalNodes>
          <leafValues>
            4.2797210812568665e-01 -1.6499510407447815e-01</leafValues></_>
        <_>
          <internalNodes>
            0 -1 194 3.2077697105705738e-03</internalNodes>
          <leafValues>
            -7.7898502349853516e-02 6.1357390880584717e-01</leafValues></_>
        <_>
          <internalNodes>
            0 -1 211 8.8324359239777550e-06</internalNodes>
          <leafValues>
            -1.8390218913555145e-01 3.1728082895278931e-01</leafValues></_>
        <_>
          <internalNodes>
            0 -1 229 4.6471254900097847e-03</internalNodes>
          <leafValues>
            -6.3141442835330963e-02 7.9646688699722290e-01</leafValues></_>
        <_>
          <internalNodes>
            0 -1 106 -8.4019619971513748e-03</internalNodes>
          <leafValues>
            -6.5305995941162109e-01 1.0808825492858887e-01</leafValues></_>
        <_>
          <internalNodes>
            0 -1 230 -2.2140702640172094e-04</internalNodes>
          <leafValues>
            2.5741147994995117e-01 -2.4374099075794220e-01</leafValues></_>
        <_>
          <internalNodes>
            0 -1 261 -9.7450001703691669e-06</internalNodes>
          <leafValues>
            2.5377988815307617e-01 -2.0634631812572479e-01</leafValues></_>
        <_>
          <internalNodes>
            0 -1 289 4.5626237988471985e-03</internalNodes>
          <leafValues>
            -6.7416667938232422e-02 8.1632274389266968e-01</leafValues></_>
        <_>
          <internalNodes>
            0 -1 264 2.1563918562605977e-04</internalNodes>
          <leafValues>
            1.2211299687623978e-01 -4.9915969371795654e-01</leafValues></_>
        <_>
          <internalNodes>
            0 -1 273 -8.8436645455658436e-04</internalNodes>
          <leafValues>
            3.6994254589080811e-01 -1.5709771215915680e-01</leafValues></_>
        <_>
          <internalNodes>
            0 -1 262 8.1988491729134694e-06</internalNodes>
          <leafValues>
            -2.3828861117362976e-01 2.6646557450294495e-01</leafValues></_>
        <_>
          <internalNodes>
            0 -1 131 4.6752416528761387e-04</internalNodes>
          <leafValues>
            1.4404970407485962e-01 -4.2790958285331726e-01</leafValues></_>
        <_>
          <internalNodes>
            0 -1 255 -1.0381523752585053e-03</internalNodes>
          <leafValues>
            7.5484067201614380e-01 -9.3098893761634827e-02</leafValues></_></weakClassifiers></_>
    <!-- stage 18 -->
    <_>
      <maxWeakCount>31</maxWeakCount>
      <stageThreshold>-8.1147998571395874e-01</stageThreshold>
      <weakClassifiers>
        <_>
          <internalNodes>
            0 -1 57 -1.1632068082690239e-02</internalNodes>
          <leafValues>
            4.3619048595428467e-01 -1.0545454174280167e-01</leafValues></_>
        <_>
          <internalNodes>
            0 -1 150 -1.1386468540877104e-03</internalNodes>
          <leafValues>
            4.6525803208351135e-01 -1.3929608464241028e-01</leafValues></_>
        <_>
          <internalNodes>
            0 -1 218 -8.3285514847375453e-05</internalNodes>
          <leafValues>
            2.1497523784637451e-01 -2.2358551621437073e-01</leafValues></_>
        <_>
          <internalNodes>
            0 -1 144 1.9395063864067197e-03</internalNodes>
          <leafValues>
            -1.8579062819480896e-01 3.3310744166374207e-01</leafValues></_>
        <_>
          <internalNodes>
            0 -1 216 -1.6412768512964249e-02</internalNodes>
          <leafValues>
            2.8016942739486694e-01 -1.8848958611488342e-01</leafValues></_>
        <_>
          <internalNodes>
            0 -1 309 6.9295270368456841e-03</internalNodes>
          <leafValues>
            -1.2239454686641693e-01 3.8262733817100525e-01</leafValues></_>
        <_>
          <internalNodes>
            0 -1 251 -1.9933395087718964e-03</internalNodes>
          <leafValues>
            -5.5246722698211670e-01 7.2163201868534088e-02</leafValues></_>
        <_>
          <internalNodes>
            0 -1 50 -2.5984086096286774e-04</internalNodes>
          <leafValues>
            -4.3843558430671692e-01 1.2356318533420563e-01</leafValues></_>
        <_>
          <internalNodes>
            0 -1 256 -7.0801924448460340e-04</internalNodes>
          <leafValues>
            3.2574987411499023e-01 -1.4561757445335388e-01</leafValues></_>
        <_>
          <internalNodes>
            0 -1 186 -5.0170077010989189e-03</internalNodes>
          <leafValues>
            -7.4480265378952026e-01 6.0722023248672485e-02</leafValues></_>
        <_>
          <internalNodes>
            0 -1 207 -4.2274894076399505e-04</internalNodes>
          <leafValues>
            1.5668691694736481e-01 -3.0716124176979065e-01</leafValues></_>
        <_>
          <internalNodes>
            0 -1 199 1.1204241309314966e-03</internalNodes>
          <leafValues>
            -7.2532795369625092e-02 8.9900630712509155e-01</leafValues></_>
        <_>
          <internalNodes>
            0 -1 226 -2.1350296214222908e-02</internalNodes>
          <leafValues>
            -6.4568436145782471e-01 1.0715904831886292e-01</leafValues></_>
        <_>
          <internalNodes>
            0 -1 244 5.0290189683437347e-03</internalNodes>
          <leafValues>
            5.2493743598461151e-02 -7.5402164459228516e-01</leafValues></_>
        <_>
          <internalNodes>
            0 -1 312 -7.2766782250255346e-04</internalNodes>
          <leafValues>
            7.1206629276275635e-01 -7.9277671873569489e-02</leafValues></_>
        <_>
          <internalNodes>
            0 -1 318 -5.2753165364265442e-03</internalNodes>
          <leafValues>
            -6.0757398605346680e-01 9.7245827317237854e-02</leafValues></_>
        <_>
          <internalNodes>
            0 -1 164 -1.3268663315102458e-03</internalNodes>
          <leafValues>
            3.7548056244850159e-01 -1.3682764768600464e-01</leafValues></_>
        <_>
          <internalNodes>
            0 -1 86 -5.3623422980308533e-02</internalNodes>
          <leafValues>
            3.2337677478790283e-01 -1.6104035079479218e-01</leafValues></_>
        <_>
          <internalNodes>
            0 -1 184 -2.3589830379933119e-03</internalNodes>
          <leafValues>
            4.4315305352210999e-01 -1.2361744046211243e-01</leafValues></_>
        <_>
          <internalNodes>
            0 -1 197 1.1143276933580637e-03</internalNodes>
          <leafValues>
            -4.7376781702041626e-02 9.1083067655563354e-01</leafValues></_>
        <_>
          <internalNodes>
            0 -1 304 -1.6234198119491339e-03</internalNodes>
          <leafValues>
            4.1817617416381836e-01 -1.1139942705631256e-01</leafValues></_>
        <_>
          <internalNodes>
            0 -1 33 1.3068144209682941e-02</internalNodes>
          <leafValues>
            8.3316437900066376e-02 -7.0318830013275146e-01</leafValues></_>
        <_>
          <internalNodes>
            0 -1 117 1.4900374226272106e-03</internalNodes>
          <leafValues>
            -9.3033082783222198e-02 6.7488509416580200e-01</leafValues></_>
        <_>
          <internalNodes>
            0 -1 70 -8.7500531226396561e-03</internalNodes>
          <leafValues>
            3.1732755899429321e-01 -1.7385405302047729e-01</leafValues></_>
        <_>
          <internalNodes>
            0 -1 276 -2.2553568123839796e-04</internalNodes>
          <leafValues>
            -4.4538259506225586e-01 1.3427299261093140e-01</leafValues></_>
        <_>
          <internalNodes>
            0 -1 205 -5.8765783905982971e-03</internalNodes>
          <leafValues>
            5.5151766538619995e-01 -1.0123991966247559e-01</leafValues></_>
        <_>
          <internalNodes>
            0 -1 26 2.4948693811893463e-02</internalNodes>
          <leafValues>
            7.9136028885841370e-02 -8.0254441499710083e-01</leafValues></_>
        <_>
          <internalNodes>
            0 -1 142 -8.4271107334643602e-04</internalNodes>
          <leafValues>
            3.3557981252670288e-01 -1.6819369792938232e-01</leafValues></_>
        <_>
          <internalNodes>
            0 -1 260 -5.2884065553371329e-06</internalNodes>
          <leafValues>
            2.3192128539085388e-01 -2.2827756404876709e-01</leafValues></_>
        <_>
          <internalNodes>
            0 -1 213 -1.1938817333430052e-03</internalNodes>
          <leafValues>
            5.1336479187011719e-01 -1.0297241061925888e-01</leafValues></_>
        <_>
          <internalNodes>
            0 -1 105 5.2651332225650549e-04</internalNodes>
          <leafValues>
            -1.4687255024909973e-01 3.7280833721160889e-01</leafValues></_></weakClassifiers></_>
    <!-- stage 19 -->
    <_>
      <maxWeakCount>31</maxWeakCount>
      <stageThreshold>-8.6675781011581421e-01</stageThreshold>
      <weakClassifiers>
        <_>
          <internalNodes>
            0 -1 356 1.0926356480922550e-04</internalNodes>
          <leafValues>
            3.6307692527770996e-01 -2.3999999463558197e-01</leafValues></_>
        <_>
          <internalNodes>
            0 -1 365 4.2155526898568496e-05</internalNodes>
          <leafValues>
            1.4943107962608337e-01 -3.5549658536911011e-01</leafValues></_>
        <_>
          <internalNodes>
            0 -1 365 -6.2287770560942590e-05</internalNodes>
          <leafValues>
            -4.1501393914222717e-01 1.6103725135326385e-01</leafValues></_>
        <_>
          <internalNodes>
            0 -1 59 -1.6515608876943588e-02</internalNodes>
          <leafValues>
            6.5106242895126343e-01 -1.1505271494388580e-01</leafValues></_>
        <_>
          <internalNodes>
            0 -1 154 1.0010097175836563e-02</internalNodes>
          <leafValues>
            4.4332660734653473e-02 -6.8685030937194824e-01</leafValues></_>
        <_>
          <internalNodes>
            0 -1 246 -2.7984444051980972e-02</internalNodes>
          <leafValues>
            3.4458273649215698e-01 -1.4129167795181274e-01</leafValues></_>
        <_>
          <internalNodes>
            0 -1 13 -3.5026931762695312e-01</internalNodes>
          <leafValues>
            4.2959576845169067e-01 -1.2413313239812851e-01</leafValues></_>
        <_>
          <internalNodes>
            0 -1 274 -2.0408267155289650e-03</internalNodes>
          <leafValues>
            2.6128768920898438e-01 -2.2361251711845398e-01</leafValues></_>
        <_>
          <internalNodes>
            0 -1 248 9.0108218137174845e-04</internalNodes>
          <leafValues>
            -9.4403184950351715e-02 5.6975305080413818e-01</leafValues></_>
        <_>
          <internalNodes>
            0 -1 193 -9.1210613027215004e-03</internalNodes>
          <leafValues>
            4.3923974037170410e-01 -1.2371570616960526e-01</leafValues></_>
        <_>
          <internalNodes>
            0 -1 35 7.2010397911071777e-02</internalNodes>
          <leafValues>
            9.1231159865856171e-02 -7.0083212852478027e-01</leafValues></_>
        <_>
          <internalNodes>
            0 -1 190 -6.1910494696348906e-04</internalNodes>
          <leafValues>
            5.2448272705078125e-01 -1.1449769884347916e-01</leafValues></_>
        <_>
          <internalNodes>
            0 -1 305 7.9276377800852060e-04</internalNodes>
          <leafValues>
            1.3046838343143463e-01 -4.4021871685981750e-01</leafValues></_>
        <_>
          <internalNodes>
            0 -1 143 3.9494298398494720e-03</internalNodes>
          <leafValues>
            -7.8729137778282166e-02 6.9990497827529907e-01</leafValues></_>
        <_>
          <internalNodes>
            0 -1 161 -1.2756724841892719e-02</internalNodes>
          <leafValues>
            -4.8492807149887085e-01 1.1552416533231735e-01</leafValues></_>
        <_>
          <internalNodes>
            0 -1 206 -3.2877438934519887e-04</internalNodes>
          <leafValues>
            2.7893137931823730e-01 -1.9243480265140533e-01</leafValues></_>
        <_>
          <internalNodes>
            0 -1 250 1.4985336922109127e-02</internalNodes>
          <leafValues>
            -1.5199099481105804e-01 3.6202958226203918e-01</leafValues></_>
        <_>
          <internalNodes>
            0 -1 47 8.3900013123638928e-05</internalNodes>
          <leafValues>
            1.2575550377368927e-01 -4.4987028837203979e-01</leafValues></_>
        <_>
          <internalNodes>
            0 -1 139 -8.7967564468272030e-06</internalNodes>
          <leafValues>
            2.2282676398754120e-01 -2.3374255001544952e-01</leafValues></_>
        <_>
          <internalNodes>
            0 -1 169 6.4874859526753426e-04</internalNodes>
          <leafValues>
            -7.4614226818084717e-02 6.9521278142929077e-01</leafValues></_>
        <_>
          <internalNodes>
            0 -1 277 -7.3254370363429189e-04</internalNodes>
          <leafValues>
            -5.5776315927505493e-01 1.0010526329278946e-01</leafValues></_>
        <_>
          <internalNodes>
            0 -1 146 -1.5138016315177083e-03</internalNodes>
          <leafValues>
            4.1234457492828369e-01 -1.2263759970664978e-01</leafValues></_>
        <_>
          <internalNodes>
            0 -1 323 2.3125344887375832e-02</internalNodes>
          <leafValues>
            -1.9336397945880890e-01 2.8807345032691956e-01</leafValues></_>
        <_>
          <internalNodes>
            0 -1 217 -9.1909635812044144e-03</internalNodes>
          <leafValues>
            2.8308156132698059e-01 -2.1730388700962067e-01</leafValues></_>
        <_>
          <internalNodes>
            0 -1 118 -5.9576509520411491e-03</internalNodes>
          <leafValues>
            2.9417988657951355e-01 -1.9027379155158997e-01</leafValues></_>
        <_>
          <internalNodes>
            0 -1 342 -1.1342481011524796e-03</internalNodes>
          <leafValues>
            3.0222016572952271e-01 -1.6847176849842072e-01</leafValues></_>
        <_>
          <internalNodes>
            0 -1 192 -7.1670894976705313e-04</internalNodes>
          <leafValues>
            6.1878323554992676e-01 -8.6838461458683014e-02</leafValues></_>
        <_>
          <internalNodes>
            0 -1 72 -2.8138086199760437e-03</internalNodes>
          <leafValues>
            2.5083354115486145e-01 -2.0786492526531219e-01</leafValues></_>
        <_>
          <internalNodes>
            0 -1 177 -9.6125513664446771e-05</internalNodes>
          <leafValues>
            2.2634531557559967e-01 -2.6086223125457764e-01</leafValues></_>
        <_>
          <internalNodes>
            0 -1 11 1.1209378018975258e-02</internalNodes>
          <leafValues>
            1.0646785050630569e-01 -5.0210088491439819e-01</leafValues></_>
        <_>
          <internalNodes>
            0 -1 132 1.2615064159035683e-02</internalNodes>
          <leafValues>
            8.4447227418422699e-02 -6.1162114143371582e-01</leafValues></_></weakClassifiers></_></stages>
  <features>
    <_>
      <rects>
        <_>
          0 0 2 2 -1.</_>
        <_>
          0 0 1 1 2.</_>
        <_>
          1 1 1 1 2.</_></rects>
      <tilted>0</tilted></_>
    <_>
      <rects>
        <_>
          0 0 3 2 -1.</_>
        <_>
          1 0 1 2 3.</_></rects>
      <tilted>0</tilted></_>
    <_>
      <rects>
        <_>
          0 0 2 3 -1.</_>
        <_>
          1 0 1 3 2.</_></rects>
      <tilted>0</tilted></_>
    <_>
      <rects>
        <_>
          0 0 4 5 -1.</_>
        <_>
          1 0 2 5 2.</_></rects>
      <tilted>0</tilted></_>
    <_>
      <rects>
        <_>
          0 0 14 34 -1.</_>
        <_>
          0 0 7 17 2.</_>
        <_>
          7 17 7 17 2.</_></rects>
      <tilted>0</tilted></_>
    <_>
      <rects>
        <_>
          0 0 30 15 -1.</_>
        <_>
          15 0 15 15 2.</_></rects>
      <tilted>0</tilted></_>
    <_>
      <rects>
        <_>
          0 0 27 46 -1.</_>
        <_>
          0 23 27 23 2.</_></rects>
      <tilted>0</tilted></_>
    <_>
      <rects>
        <_>
          0 0 30 38 -1.</_>
        <_>
          0 19 30 19 2.</_></rects>
      <tilted>0</tilted></_>
    <_>
      <rects>
        <_>
          0 0 30 48 -1.</_>
        <_>
          0 24 30 24 2.</_></rects>
      <tilted>0</tilted></_>
    <_>
      <rects>
        <_>
          0 1 2 1 -1.</_>
        <_>
          1 1 1 1 2.</_></rects>
      <tilted>0</tilted></_>
    <_>
      <rects>
        <_>
          0 2 2 1 -1.</_>
        <_>
          1 2 1 1 2.</_></rects>
      <tilted>0</tilted></_>
    <_>
      <rects>
        <_>
          0 2 6 25 -1.</_>
        <_>
          2 2 2 25 3.</_></rects>
      <tilted>0</tilted></_>
    <_>
      <rects>
        <_>
          0 3 2 2 -1.</_>
        <_>
          1 3 1 2 2.</_></rects>
      <tilted>0</tilted></_>
    <_>
      <rects>
        <_>
          0 3 27 33 -1.</_>
        <_>
          9 14 9 11 9.</_></rects>
      <tilted>0</tilted></_>
    <_>
      <rects>
        <_>
          0 4 2 2 -1.</_>
        <_>
          1 4 1 2 2.</_></rects>
      <tilted>0</tilted></_>
    <_>
      <rects>
        <_>
          0 4 12 39 -1.</_>
        <_>
          4 17 4 13 9.</_></rects>
      <tilted>0</tilted></_>
    <_>
      <rects>
        <_>
          0 6 8 21 -1.</_>
        <_>
          4 6 4 21 2.</_></rects>
      <tilted>0</tilted></_>
    <_>
      <rects>
        <_>
          0 7 10 42 -1.</_>
        <_>
          0 7 5 21 2.</_>
        <_>
          5 28 5 21 2.</_></rects>
      <tilted>0</tilted></_>
    <_>
      <rects>
        <_>
          0 7 17 3 -1.</_>
        <_>
          0 8 17 1 3.</_></rects>
      <tilted>0</tilted></_>
    <_>
      <rects>
        <_>
          0 10 12 24 -1.</_>
        <_>
          3 10 6 24 2.</_></rects>
      <tilted>0</tilted></_>
    <_>
      <rects>
        <_>
          0 12 4 20 -1.</_>
        <_>
          2 12 2 20 2.</_></rects>
      <tilted>0</tilted></_>
    <_>
      <rects>
        <_>
          0 12 12 17 -1.</_>
        <_>
          4 12 4 17 3.</_></rects>
      <tilted>0</tilted></_>
    <_>
      <rects>
        <_>
          0 12 12 21 -1.</_>
        <_>
          4 12 4 21 3.</_></rects>
      <tilted>0</tilted></_>
    <_>
      <rects>
        <_>
          0 14 1 20 -1.</_>
        <_>
          0 24 1 10 2.</_></rects>
      <tilted>0</tilted></_>
    <_>
      <rects>
        <_>
          0 14 19 36 -1.</_>
        <_>
          0 32 19 18 2.</_></rects>
      <tilted>0</tilted></_>
    <_>
      <rects>
        <_>
          0 16 29 12 -1.</_>
        <_>
          0 20 29 4 3.</_></rects>
      <tilted>0</tilted></_>
    <_>
      <rects>
        <_>
          0 16 30 9 -1.</_>
        <_>
          0 19 30 3 3.</_></rects>
      <tilted>0</tilted></_>
    <_>
      <rects>
        <_>
          0 17 2 16 -1.</_>
        <_>
          1 17 1 16 2.</_></rects>
      <tilted>0</tilted></_>
    <_>
      <rects>
        <_>
          0 18 2 6 -1.</_>
        <_>
          0 18 1 3 2.</_>
        <_>
          1 21 1 3 2.</_></rects>
      <tilted>0</tilted></_>
    <_>
      <rects>
        <_>
          0 18 2 14 -1.</_>
        <_>
          0 18 1 7 2.</_>
        <_>
          1 25 1 7 2.</_></rects>
      <tilted>0</tilted></_>
    <_>
      <rects>
        <_>
          0 18 2 18 -1.</_>
        <_>
          0 18 1 9 2.</_>
        <_>
          1 27 1 9 2.</_></rects>
      <tilted>0</tilted></_>
    <_>
      <rects>
        <_>
          0 18 6 19 -1.</_>
        <_>
          2 18 2 19 3.</_></rects>
      <tilted>0</tilted></_>
    <_>
      <rects>
        <_>
          0 19 2 13 -1.</_>
        <_>
          1 19 1 13 2.</_></rects>
      <tilted>0</tilted></_>
    <_>
      <rects>
        <_>
          0 19 13 9 -1.</_>
        <_>
          0 22 13 3 3.</_></rects>
      <tilted>0</tilted></_>
    <_>
      <rects>
        <_>
          0 19 29 18 -1.</_>
        <_>
          0 28 29 9 2.</_></rects>
      <tilted>0</tilted></_>
    <_>
      <rects>
        <_>
          0 21 30 14 -1.</_>
        <_>
          0 28 30 7 2.</_></rects>
      <tilted>0</tilted></_>
    <_>
      <rects>
        <_>
          0 22 3 3 -1.</_>
        <_>
          1 22 1 3 3.</_></rects>
      <tilted>0</tilted></_>
    <_>
      <rects>
        <_>
          0 22 15 6 -1.</_>
        <_>
          5 22 5 6 3.</_></rects>
      <tilted>0</tilted></_>
    <_>
      <rects>
        <_>
          0 23 12 3 -1.</_>
        <_>
          4 23 4 3 3.</_></rects>
      <tilted>0</tilted></_>
    <_>
      <rects>
        <_>
          0 24 4 10 -1.</_>
        <_>
          0 24 2 5 2.</_>
        <_>
          2 29 2 5 2.</_></rects>
      <tilted>0</tilted></_>
    <_>
      <rects>
        <_>
          0 26 15 7 -1.</_>
        <_>
          5 26 5 7 3.</_></rects>
      <tilted>0</tilted></_>
    <_>
      <rects>
        <_>
          0 26 29 14 -1.</_>
        <_>
          0 33 29 7 2.</_></rects>
      <tilted>0</tilted></_>
    <_>
      <rects>
        <_>
          0 29 3 1 -1.</_>
        <_>
          1 29 1 1 3.</_></rects>
      <tilted>0</tilted></_>
    <_>
      <rects>
        <_>
          0 29 3 3 -1.</_>
        <_>
          1 29 1 3 3.</_></rects>
      <tilted>0</tilted></_>
    <_>
      <rects>
        <_>
          0 29 3 4 -1.</_>
        <_>
          1 29 1 4 3.</_></rects>
      <tilted>0</tilted></_>
    <_>
      <rects>
        <_>
          0 30 6 1 -1.</_>
        <_>
          2 30 2 1 3.</_></rects>
      <tilted>0</tilted></_>
    <_>
      <rects>
        <_>
          0 41 30 9 -1.</_>
        <_>
          0 44 30 3 3.</_></rects>
      <tilted>0</tilted></_>
    <_>
      <rects>
        <_>
          0 47 2 2 -1.</_>
        <_>
          0 47 1 1 2.</_>
        <_>
          1 48 1 1 2.</_></rects>
      <tilted>0</tilted></_>
    <_>
      <rects>
        <_>
          0 48 2 2 -1.</_>
        <_>
          1 48 1 2 2.</_></rects>
      <tilted>0</tilted></_>
    <_>
      <rects>
        <_>
          0 48 4 2 -1.</_>
        <_>
          1 48 2 2 2.</_></rects>
      <tilted>0</tilted></_>
    <_>
      <rects>
        <_>
          0 48 4 2 -1.</_>
        <_>
          0 49 4 1 2.</_></rects>
      <tilted>0</tilted></_>
    <_>
      <rects>
        <_>
          0 49 2 1 -1.</_>
        <_>
          1 49 1 1 2.</_></rects>
      <tilted>0</tilted></_>
    <_>
      <rects>
        <_>
          0 49 3 1 -1.</_>
        <_>
          1 49 1 1 3.</_></rects>
      <tilted>0</tilted></_>
    <_>
      <rects>
        <_>
          0 49 4 1 -1.</_>
        <_>
          1 49 2 1 2.</_></rects>
      <tilted>0</tilted></_>
    <_>
      <rects>
        <_>
          1 0 2 1 -1.</_>
        <_>
          2 0 1 1 2.</_></rects>
      <tilted>0</tilted></_>
    <_>
      <rects>
        <_>
          1 0 3 2 -1.</_>
        <_>
          2 0 1 2 3.</_></rects>
      <tilted>0</tilted></_>
    <_>
      <rects>
        <_>
          1 0 2 30 -1.</_>
        <_>
          1 15 2 15 2.</_></rects>
      <tilted>0</tilted></_>
    <_>
      <rects>
        <_>
          1 0 6 24 -1.</_>
        <_>
          1 12 6 12 2.</_></rects>
      <tilted>0</tilted></_>
    <_>
      <rects>
        <_>
          1 0 17 14 -1.</_>
        <_>
          1 7 17 7 2.</_></rects>
      <tilted>0</tilted></_>
    <_>
      <rects>
        <_>
          1 0 21 4 -1.</_>
        <_>
          1 2 21 2 2.</_></rects>
      <tilted>0</tilted></_>
    <_>
      <rects>
        <_>
          1 1 3 1 -1.</_>
        <_>
          2 1 1 1 3.</_></rects>
      <tilted>0</tilted></_>
    <_>
      <rects>
        <_>
          1 1 27 48 -1.</_>
        <_>
          10 17 9 16 9.</_></rects>
      <tilted>0</tilted></_>
    <_>
      <rects>
        <_>
          1 5 28 32 -1.</_>
        <_>
          1 13 28 16 2.</_></rects>
      <tilted>0</tilted></_>
    <_>
      <rects>
        <_>
          1 9 12 30 -1.</_>
        <_>
          5 19 4 10 9.</_></rects>
      <tilted>0</tilted></_>
    <_>
      <rects>
        <_>
          1 10 28 37 -1.</_>
        <_>
          8 10 14 37 2.</_></rects>
      <tilted>0</tilted></_>
    <_>
      <rects>
        <_>
          1 12 25 15 -1.</_>
        <_>
          1 17 25 5 3.</_></rects>
      <tilted>0</tilted></_>
    <_>
      <rects>
        <_>
          1 13 24 26 -1.</_>
        <_>
          7 13 12 26 2.</_></rects>
      <tilted>0</tilted></_>
    <_>
      <rects>
        <_>
          1 15 3 1 -1.</_>
        <_>
          2 15 1 1 3.</_></rects>
      <tilted>0</tilted></_>
    <_>
      <rects>
        <_>
          1 16 22 16 -1.</_>
        <_>
          12 16 11 16 2.</_></rects>
      <tilted>0</tilted></_>
    <_>
      <rects>
        <_>
          1 17 8 10 -1.</_>
        <_>
          5 17 4 10 2.</_></rects>
      <tilted>0</tilted></_>
    <_>
      <rects>
        <_>
          1 18 10 18 -1.</_>
        <_>
          1 24 10 6 3.</_></rects>
      <tilted>0</tilted></_>
    <_>
      <rects>
        <_>
          1 18 27 18 -1.</_>
        <_>
          1 27 27 9 2.</_></rects>
      <tilted>0</tilted></_>
    <_>
      <rects>
        <_>
          1 19 18 3 -1.</_>
        <_>
          7 20 6 1 9.</_></rects>
      <tilted>0</tilted></_>
    <_>
      <rects>
        <_>
          1 21 22 10 -1.</_>
        <_>
          12 21 11 10 2.</_></rects>
      <tilted>0</tilted></_>
    <_>
      <rects>
        <_>
          1 21 29 14 -1.</_>
        <_>
          1 28 29 7 2.</_></rects>
      <tilted>0</tilted></_>
    <_>
      <rects>
        <_>
          1 24 8 14 -1.</_>
        <_>
          5 24 4 14 2.</_></rects>
      <tilted>0</tilted></_>
    <_>
      <rects>
        <_>
          1 25 18 6 -1.</_>
        <_>
          1 28 18 3 2.</_></rects>
      <tilted>0</tilted></_>
    <_>
      <rects>
        <_>
          1 33 3 1 -1.</_>
        <_>
          2 33 1 1 3.</_></rects>
      <tilted>0</tilted></_>
    <_>
      <rects>
        <_>
          1 46 3 4 -1.</_>
        <_>
          2 46 1 4 3.</_></rects>
      <tilted>0</tilted></_>
    <_>
      <rects>
        <_>
          1 48 2 2 -1.</_>
        <_>
          1 48 1 1 2.</_>
        <_>
          2 49 1 1 2.</_></rects>
      <tilted>0</tilted></_>
    <_>
      <rects>
        <_>
          1 48 3 2 -1.</_>
        <_>
          2 48 1 2 3.</_></rects>
      <tilted>0</tilted></_>
    <_>
      <rects>
        <_>
          1 49 2 1 -1.</_>
        <_>
          2 49 1 1 2.</_></rects>
      <tilted>0</tilted></_>
    <_>
      <rects>
        <_>
          1 49 3 1 -1.</_>
        <_>
          2 49 1 1 3.</_></rects>
      <tilted>0</tilted></_>
    <_>
      <rects>
        <_>
          2 0 2 2 -1.</_>
        <_>
          3 0 1 2 2.</_></rects>
      <tilted>0</tilted></_>
    <_>
      <rects>
        <_>
          2 0 2 3 -1.</_>
        <_>
          3 0 1 3 2.</_></rects>
      <tilted>0</tilted></_>
    <_>
      <rects>
        <_>
          2 0 3 3 -1.</_>
        <_>
          3 0 1 3 3.</_></rects>
      <tilted>0</tilted></_>
    <_>
      <rects>
        <_>
          2 0 28 14 -1.</_>
        <_>
          2 7 28 7 2.</_></rects>
      <tilted>0</tilted></_>
    <_>
      <rects>
        <_>
          2 1 3 1 -1.</_>
        <_>
          3 1 1 1 3.</_></rects>
      <tilted>0</tilted></_>
    <_>
      <rects>
        <_>
          2 3 17 6 -1.</_>
        <_>
          2 5 17 2 3.</_></rects>
      <tilted>0</tilted></_>
    <_>
      <rects>
        <_>
          2 17 14 10 -1.</_>
        <_>
          2 22 14 5 2.</_></rects>
      <tilted>0</tilted></_>
    <_>
      <rects>
        <_>
          2 21 28 12 -1.</_>
        <_>
          2 24 28 6 2.</_></rects>
      <tilted>0</tilted></_>
    <_>
      <rects>
        <_>
          2 24 12 9 -1.</_>
        <_>
          6 24 4 9 3.</_></rects>
      <tilted>0</tilted></_>
    <_>
      <rects>
        <_>
          2 25 9 2 -1.</_>
        <_>
          5 25 3 2 3.</_></rects>
      <tilted>0</tilted></_>
    <_>
      <rects>
        <_>
          2 25 24 6 -1.</_>
        <_>
          2 25 12 3 2.</_>
        <_>
          14 28 12 3 2.</_></rects>
      <tilted>0</tilted></_>
    <_>
      <rects>
        <_>
          2 48 2 2 -1.</_>
        <_>
          2 48 1 1 2.</_>
        <_>
          3 49 1 1 2.</_></rects>
      <tilted>0</tilted></_>
    <_>
      <rects>
        <_>
          2 49 2 1 -1.</_>
        <_>
          3 49 1 1 2.</_></rects>
      <tilted>0</tilted></_>
    <_>
      <rects>
        <_>
          3 0 2 2 -1.</_>
        <_>
          4 0 1 2 2.</_></rects>
      <tilted>0</tilted></_>
    <_>
      <rects>
        <_>
          3 1 2 3 -1.</_>
        <_>
          4 1 1 3 2.</_></rects>
      <tilted>0</tilted></_>
    <_>
      <rects>
        <_>
          3 1 6 18 -1.</_>
        <_>
          3 10 6 9 2.</_></rects>
      <tilted>0</tilted></_>
    <_>
      <rects>
        <_>
          3 2 26 12 -1.</_>
        <_>
          3 6 26 4 3.</_></rects>
      <tilted>0</tilted></_>
    <_>
      <rects>
        <_>
          3 3 6 22 -1.</_>
        <_>
          3 14 6 11 2.</_></rects>
      <tilted>0</tilted></_>
    <_>
      <rects>
        <_>
          3 10 24 37 -1.</_>
        <_>
          9 10 12 37 2.</_></rects>
      <tilted>0</tilted></_>
    <_>
      <rects>
        <_>
          3 10 25 18 -1.</_>
        <_>
          3 16 25 6 3.</_></rects>
      <tilted>0</tilted></_>
    <_>
      <rects>
        <_>
          3 18 27 15 -1.</_>
        <_>
          3 23 27 5 3.</_></rects>
      <tilted>0</tilted></_>
    <_>
      <rects>
        <_>
          3 20 3 3 -1.</_>
        <_>
          4 20 1 3 3.</_></rects>
      <tilted>0</tilted></_>
    <_>
      <rects>
        <_>
          3 20 6 1 -1.</_>
        <_>
          6 20 3 1 2.</_></rects>
      <tilted>0</tilted></_>
    <_>
      <rects>
        <_>
          3 25 7 9 -1.</_>
        <_>
          3 28 7 3 3.</_></rects>
      <tilted>0</tilted></_>
    <_>
      <rects>
        <_>
          3 26 2 2 -1.</_>
        <_>
          3 26 1 1 2.</_>
        <_>
          4 27 1 1 2.</_></rects>
      <tilted>0</tilted></_>
    <_>
      <rects>
        <_>
          3 43 18 7 -1.</_>
        <_>
          12 43 9 7 2.</_></rects>
      <tilted>0</tilted></_>
    <_>
      <rects>
        <_>
          3 49 2 1 -1.</_>
        <_>
          4 49 1 1 2.</_></rects>
      <tilted>0</tilted></_>
    <_>
      <rects>
        <_>
          4 0 25 48 -1.</_>
        <_>
          4 24 25 24 2.</_></rects>
      <tilted>0</tilted></_>
    <_>
      <rects>
        <_>
          4 6 19 18 -1.</_>
        <_>
          4 12 19 6 3.</_></rects>
      <tilted>0</tilted></_>
    <_>
      <rects>
        <_>
          4 19 9 12 -1.</_>
        <_>
          4 23 9 4 3.</_></rects>
      <tilted>0</tilted></_>
    <_>
      <rects>
        <_>
          4 20 18 6 -1.</_>
        <_>
          10 22 6 2 9.</_></rects>
      <tilted>0</tilted></_>
    <_>
      <rects>
        <_>
          4 21 20 9 -1.</_>
        <_>
          4 24 20 3 3.</_></rects>
      <tilted>0</tilted></_>
    <_>
      <rects>
        <_>
          4 21 20 12 -1.</_>
        <_>
          4 25 20 4 3.</_></rects>
      <tilted>0</tilted></_>
    <_>
      <rects>
        <_>
          4 28 3 7 -1.</_>
        <_>
          5 28 1 7 3.</_></rects>
      <tilted>0</tilted></_>
    <_>
      <rects>
        <_>
          4 29 3 2 -1.</_>
        <_>
          5 29 1 2 3.</_></rects>
      <tilted>0</tilted></_>
    <_>
      <rects>
        <_>
          5 1 10 18 -1.</_>
        <_>
          5 7 10 6 3.</_></rects>
      <tilted>0</tilted></_>
    <_>
      <rects>
        <_>
          5 13 4 20 -1.</_>
        <_>
          5 18 4 10 2.</_></rects>
      <tilted>0</tilted></_>
    <_>
      <rects>
        <_>
          5 23 23 6 -1.</_>
        <_>
          5 26 23 3 2.</_></rects>
      <tilted>0</tilted></_>
    <_>
      <rects>
        <_>
          5 35 3 3 -1.</_>
        <_>
          6 36 1 1 9.</_></rects>
      <tilted>0</tilted></_>
    <_>
      <rects>
        <_>
          5 48 4 1 -1.</_>
        <_>
          7 48 2 1 2.</_></rects>
      <tilted>0</tilted></_>
    <_>
      <rects>
        <_>
          6 0 7 20 -1.</_>
        <_>
          6 10 7 10 2.</_></rects>
      <tilted>0</tilted></_>
    <_>
      <rects>
        <_>
          6 2 23 8 -1.</_>
        <_>
          6 4 23 4 2.</_></rects>
      <tilted>0</tilted></_>
    <_>
      <rects>
        <_>
          6 14 2 4 -1.</_>
        <_>
          6 14 1 2 2.</_>
        <_>
          7 16 1 2 2.</_></rects>
      <tilted>0</tilted></_>
    <_>
      <rects>
        <_>
          6 16 3 3 -1.</_>
        <_>
          7 17 1 1 9.</_></rects>
      <tilted>0</tilted></_>
    <_>
      <rects>
        <_>
          6 16 24 18 -1.</_>
        <_>
          12 16 12 18 2.</_></rects>
      <tilted>0</tilted></_>
    <_>
      <rects>
        <_>
          6 19 3 3 -1.</_>
        <_>
          7 20 1 1 9.</_></rects>
      <tilted>0</tilted></_>
    <_>
      <rects>
        <_>
          6 19 21 12 -1.</_>
        <_>
          13 23 7 4 9.</_></rects>
      <tilted>0</tilted></_>
    <_>
      <rects>
        <_>
          6 20 22 10 -1.</_>
        <_>
          6 25 22 5 2.</_></rects>
      <tilted>0</tilted></_>
    <_>
      <rects>
        <_>
          6 48 6 1 -1.</_>
        <_>
          8 48 2 1 3.</_></rects>
      <tilted>0</tilted></_>
    <_>
      <rects>
        <_>
          7 0 6 18 -1.</_>
        <_>
          9 0 2 18 3.</_></rects>
      <tilted>0</tilted></_>
    <_>
      <rects>
        <_>
          7 0 7 16 -1.</_>
        <_>
          7 8 7 8 2.</_></rects>
      <tilted>0</tilted></_>
    <_>
      <rects>
        <_>
          7 3 16 4 -1.</_>
        <_>
          7 5 16 2 2.</_></rects>
      <tilted>0</tilted></_>
    <_>
      <rects>
        <_>
          7 4 8 7 -1.</_>
        <_>
          7 4 4 7 2.</_></rects>
      <tilted>1</tilted></_>
    <_>
      <rects>
        <_>
          7 15 18 18 -1.</_>
        <_>
          13 21 6 6 9.</_></rects>
      <tilted>0</tilted></_>
    <_>
