<?xml version="1.0"?>
<opencv_storage>
<stage19>
  <maxWeakCount>31</maxWeakCount>
  <stageThreshold>-8.6675781011581421e-01</stageThreshold>
  <weakClassifiers>
    <_>
      <internalNodes>
        0 -1 1722243 1.0926356480922550e-04</internalNodes>
      <leafValues>
        3.6307692527770996e-01 -2.3999999463558197e-01</leafValues></_>
    <_>
      <internalNodes>
        0 -1 1729825 4.2155526898568496e-05</internalNodes>
      <leafValues>
        1.4943107962608337e-01 -3.5549658536911011e-01</leafValues></_>
    <_>
      <internalNodes>
        0 -1 1729825 -6.2287770560942590e-05</internalNodes>
      <leafValues>
        -4.1501393914222717e-01 1.6103725135326385e-01</leafValues></_>
    <_>
      <internalNodes>
        0 -1 97332 -1.6515608876943588e-02</internalNodes>
      <leafValues>
        6.5106242895126343e-01 -1.1505271494388580e-01</leafValues></_>
    <_>
      <internalNodes>
        0 -1 787361 1.0010097175836563e-02</internalNodes>
      <leafValues>
        4.4332660734653473e-02 -6.8685030937194824e-01</leafValues></_>
    <_>
      <internalNodes>
        0 -1 1289997 -2.7984444051980972e-02</internalNodes>
      <leafValues>
        3.4458273649215698e-01 -1.4129167795181274e-01</leafValues></_>
    <_>
      <internalNodes>
        0 -1 12842 -3.5026931762695312e-01</internalNodes>
      <leafValues>
        4.2959576845169067e-01 -1.2413313239812851e-01</leafValues></_>
    <_>
      <internalNodes>
        0 -1 1466554 -2.0408267155289650e-03</internalNodes>
      <leafValues>
        2.6128768920898438e-01 -2.2361251711845398e-01</leafValues></_>
    <_>
      <internalNodes>
        0 -1 1303386 9.0108218137174845e-04</internalNodes>
      <leafValues>
        -9.4403184950351715e-02 5.6975305080413818e-01</leafValues></_>
    <_>
      <internalNodes>
        0 -1 1009047 -9.1210613027215004e-03</internalNodes>
      <leafValues>
        4.3923974037170410e-01 -1.2371570616960526e-01</leafValues></_>
    <_>
      <internalNodes>
        0 -1 64651 7.2010397911071777e-02</internalNodes>
      <leafValues>
        9.1231159865856171e-02 -7.0083212852478027e-01</leafValues></_>
    <_>
      <internalNodes>
        0 -1 1004987 -6.1910494696348906e-04</internalNodes>
      <leafValues>
        5.2448272705078125e-01 -1.1449769884347916e-01</leafValues></_>
    <_>
      <internalNodes>
        0 -1 1573852 7.9276377800852060e-04</internalNodes>
      <leafValues>
        1.3046838343143463e-01 -4.4021871685981750e-01</leafValues></_>
    <_>
      <internalNodes>
        0 -1 695091 3.9494298398494720e-03</internalNodes>
      <leafValues>
        -7.8729137778282166e-02 6.9990497827529907e-01</leafValues></_>
    <_>
      <internalNodes>
        0 -1 833192 -1.2756724841892719e-02</internalNodes>
      <leafValues>
        -4.8492807149887085e-01 1.1552416533231735e-01</leafValues></_>
    <_>
      <internalNodes>
        0 -1 1113327 -3.2877438934519887e-04</internalNodes>
      <leafValues>
        2.7893137931823730e-01 -1.9243480265140533e-01</leafValues></_>
    <_>
      <internalNodes>
        0 -1 1310637 1.4985336922109127e-02</internalNodes>
      <leafValues>
        -1.5199099481105804e-01 3.6202958226203918e-01</leafValues></_>
    <_>
      <internalNodes>
        0 -1 93928 8.3900013123638928e-05</internalNodes>
      <leafValues>
        1.2575550377368927e-01 -4.4987028837203979e-01</leafValues></_>
    <_>
      <internalNodes>
        0 -1 682793 -8.7967564468272030e-06</internalNodes>
      <leafValues>
        2.2282676398754120e-01 -2.3374255001544952e-01</leafValues></_>
    <_>
      <internalNodes>
        0 -1 910433 6.4874859526753426e-04</internalNodes>
      <leafValues>
        -7.4614226818084717e-02 6.9521278142929077e-01</leafValues></_>
    <_>
      <internalNodes>
        0 -1 1489039 -7.3254370363429189e-04</internalNodes>
      <leafValues>
        -5.5776315927505493e-01 1.0010526329278946e-01</leafValues></_>
    <_>
      <internalNodes>
        0 -1 726222 -1.5138016315177083e-03</internalNodes>
      <leafValues>
        4.1234457492828369e-01 -1.2263759970664978e-01</leafValues></_>
    <_>
      <internalNodes>
        0 -1 1651822 2.3125344887375832e-02</internalNodes>
      <leafValues>
        -1.9336397945880890e-01 2.8807345032691956e-01</leafValues></_>
    <_>
      <internalNodes>
        0 -1 1178809 -9.1909635812044144e-03</internalNodes>
      <leafValues>
        2.8308156132698059e-01 -2.1730388700962067e-01</leafValues></_>
    <_>
      <internalNodes>
        0 -1 457084 -5.9576509520411491e-03</internalNodes>
      <leafValues>
        2.9417988657951355e-01 -1.9027379155158997e-01</leafValues></_>
    <_>
      <internalNodes>
        0 -1 1701532 -1.1342481011524796e-03</internalNodes>
      <leafValues>
        3.0222016572952271e-01 -1.6847176849842072e-01</leafValues></_>
    <_>
      <internalNodes>
        0 -1 1005771 -7.1670894976705313e-04</internalNodes>
      <leafValues>
        6.1878323554992676e-01 -8.6838461458683014e-02</leafValues></_>
    <_>
      <internalNodes>
        0 -1 150578 -2.8138086199760437e-03</internalNodes>
      <leafValues>
        2.5083354115486145e-01 -2.0786492526531219e-01</leafValues></_>
    <_>
      <internalNodes>
        0 -1 919591 -9.6125513664446771e-05</internalNodes>
      <leafValues>
        2.2634531557559967e-01 -2.6086223125457764e-01</leafValues></_>
    <_>
      <internalNodes>
        0 -1 7774 1.1209378018975258e-02</internalNodes>
      <leafValues>
        1.0646785050630569e-01 -5.0210088491439819e-01</leafValues></_>
    <_>
      <internalNodes>
        0 -1 623490 1.2615064159035683e-02</internalNodes>
      <leafValues>
        8.4447227418422699e-02 -6.1162114143371582e-01</leafValues></_></weakClassifiers></stage19>
</opencv_storage>
